<?xml version="1.0"?>
<!-- DTD for the XMLBIF 0.3 format -->
<!DOCTYPE BIF [
	<!ELEMENT BIF ( NETWORK )*>
	      <!ATTLIST BIF VERSION CDATA #REQUIRED>
	<!ELEMENT NETWORK ( NAME, ( PROPERTY | VARIABLE | DEFINITION )* )>
	<!ELEMENT NAME (#PCDATA)>
	<!ELEMENT VARIABLE ( NAME, ( OUTCOME |  PROPERTY )* ) >
	      <!ATTLIST VARIABLE TYPE (nature|decision|utility) "nature">
	<!ELEMENT OUTCOME (#PCDATA)>
	<!ELEMENT DEFINITION ( FOR | GIVEN | TABLE | PROPERTY )* >
	<!ELEMENT FOR (#PCDATA)>
	<!ELEMENT GIVEN (#PCDATA)>
	<!ELEMENT TABLE (#PCDATA)>
	<!ELEMENT PROPERTY (#PCDATA)>
]>


<BIF VERSION="0.3">
<NETWORK>
<NAME>bn_dataset-weka.filters.unsupervised.attribute.ReplaceMissingValues</NAME>
<VARIABLE TYPE="nature">
	<NAME>class_of_price</NAME>
	<OUTCOME>medium</OUTCOME>
	<OUTCOME>expensive</OUTCOME>
	<OUTCOME>affordable</OUTCOME>
	<OUTCOME>economy</OUTCOME>
	<OUTCOME>top_level</OUTCOME>
	<PROPERTY>position = (1460,1728)</PROPERTY>
</VARIABLE>
<VARIABLE TYPE="nature">
	<NAME>host_response_rate</NAME>
	<OUTCOME>always_responds</OUTCOME>
	<OUTCOME>usually_responds</OUTCOME>
	<OUTCOME>never_responds</OUTCOME>
	<OUTCOME>often_responds</OUTCOME>
	<PROPERTY>position = (438,864)</PROPERTY>
</VARIABLE>
<VARIABLE TYPE="nature">
	<NAME>host_is_superhost</NAME>
	<OUTCOME>False</OUTCOME>
	<OUTCOME>True</OUTCOME>
	<PROPERTY>position = (1168,1824)</PROPERTY>
</VARIABLE>
<VARIABLE TYPE="nature">
	<NAME>is_center</NAME>
	<OUTCOME>True</OUTCOME>
	<OUTCOME>False</OUTCOME>
	<PROPERTY>position = (1022,96)</PROPERTY>
</VARIABLE>
<VARIABLE TYPE="nature">
	<NAME>neighbourhood_cleansed</NAME>
	<OUTCOME>NAVIGLI</OUTCOME>
	<OUTCOME>&apos;VIALE MONZA&apos;</OUTCOME>
	<OUTCOME>&apos;BUENOS AIRES&apos;</OUTCOME>
	<OUTCOME>CENTRALE</OUTCOME>
	<OUTCOME>DUOMO</OUTCOME>
	<OUTCOME>BRERA</OUTCOME>
	<OUTCOME>TICINESE</OUTCOME>
	<OUTCOME>WASHINGTON</OUTCOME>
	<OUTCOME>LAMBRATE</OUTCOME>
	<OUTCOME>VILLAPIZZONE</OUTCOME>
	<OUTCOME>GUASTALLA</OUTCOME>
	<OUTCOME>ISOLA</OUTCOME>
	<OUTCOME>&apos;CITTA STUDI&apos;</OUTCOME>
	<OUTCOME>GIAMBELLINO</OUTCOME>
	<OUTCOME>&apos;DE ANGELI ROSA&apos;</OUTCOME>
	<OUTCOME>&apos;BANDE NERE&apos;</OUTCOME>
	<OUTCOME>TORTONA</OUTCOME>
	<OUTCOME>&apos;XXII MARZO&apos;</OUTCOME>
	<OUTCOME>GHISOLFA</OUTCOME>
	<OUTCOME>PORTELLO</OUTCOME>
	<OUTCOME>UMBRIA</OUTCOME>
	<OUTCOME>&apos;PARCO FORLANINI&apos;</OUTCOME>
	<OUTCOME>SARPI</OUTCOME>
	<OUTCOME>BOVISA</OUTCOME>
	<OUTCOME>&apos;MAGENTA VITTORE&apos;</OUTCOME>
	<OUTCOME>LORETO</OUTCOME>
	<OUTCOME>STADERA</OUTCOME>
	<OUTCOME>VIGENTINA</OUTCOME>
	<OUTCOME>&apos;GARIBALDI REPUBBLICA&apos;</OUTCOME>
	<OUTCOME>LODI</OUTCOME>
	<OUTCOME>TIBALDI</OUTCOME>
	<OUTCOME>&apos;FORZE ARMATE&apos;</OUTCOME>
	<OUTCOME>&apos;S. CRISTOFORO&apos;</OUTCOME>
	<OUTCOME>PAGANO</OUTCOME>
	<OUTCOME>&apos;PARCO LAMBRO&apos;</OUTCOME>
	<OUTCOME>FARINI</OUTCOME>
	<OUTCOME>&apos;PORTA ROMANA&apos;</OUTCOME>
	<OUTCOME>GRECO</OUTCOME>
	<OUTCOME>PADOVA</OUTCOME>
	<OUTCOME>ORTOMERCATO</OUTCOME>
	<OUTCOME>MACIACHINI</OUTCOME>
	<OUTCOME>MAGGIORE</OUTCOME>
	<OUTCOME>LORENTEGGIO</OUTCOME>
	<OUTCOME>&apos;TRE TORRI&apos;</OUTCOME>
	<OUTCOME>BARONA</OUTCOME>
	<OUTCOME>ADRIANO</OUTCOME>
	<OUTCOME>CORSICA</OUTCOME>
	<OUTCOME>&apos;RONCHETTO SUL NAVIGLIO&apos;</OUTCOME>
	<OUTCOME>&apos;SCALO ROMANA&apos;</OUTCOME>
	<OUTCOME>&apos;QUARTO CAGNINO&apos;</OUTCOME>
	<OUTCOME>&apos;EX OM&apos;</OUTCOME>
	<OUTCOME>DERGANO</OUTCOME>
	<OUTCOME>ROGOREDO</OUTCOME>
	<OUTCOME>SELINUNTE</OUTCOME>
	<OUTCOME>&apos;S. SIRO&apos;</OUTCOME>
	<OUTCOME>GALLARATESE</OUTCOME>
	<OUTCOME>MECENATE</OUTCOME>
	<OUTCOME>&apos;QT 8&apos;</OUTCOME>
	<OUTCOME>&apos;NIGUARDA GRANDA&apos;</OUTCOME>
	<OUTCOME>RIPAMONTI</OUTCOME>
	<OUTCOME>AFFORI</OUTCOME>
	<OUTCOME>BAGGIO</OUTCOME>
	<OUTCOME>&apos;PARCO MONLUE LAMBRO&apos;</OUTCOME>
	<OUTCOME>GRATOSOGLIO</OUTCOME>
	<OUTCOME>&apos;PARCO SEMPIONE&apos;</OUTCOME>
	<OUTCOME>&apos;QUARTO OGGIARO&apos;</OUTCOME>
	<OUTCOME>COMASINA</OUTCOME>
	<OUTCOME>BOVISASCA</OUTCOME>
	<OUTCOME>&apos;PARCO AGRICOLO SUD&apos;</OUTCOME>
	<OUTCOME>&apos;PARCO NORD&apos;</OUTCOME>
	<OUTCOME>BICOCCA</OUTCOME>
	<OUTCOME>CHIARAVALLE</OUTCOME>
	<OUTCOME>&apos;QUINTO ROMANO&apos;</OUTCOME>
	<OUTCOME>&apos;TRIULZO SUPERIORE&apos;</OUTCOME>
	<OUTCOME>BRUZZANO</OUTCOME>
	<OUTCOME>FIGINO</OUTCOME>
	<OUTCOME>&apos;PARCO DEI NAVIGLI&apos;</OUTCOME>
	<OUTCOME>CANTALUPA</OUTCOME>
	<OUTCOME>TRENNO</OUTCOME>
	<OUTCOME>&apos;PARCO DELLE ABBAZIE&apos;</OUTCOME>
	<OUTCOME>&apos;GIARDINI PORTA VENEZIA&apos;</OUTCOME>
	<OUTCOME>&apos;PARCO BOSCO IN CITT&apos;</OUTCOME>
	<PROPERTY>position = (1022,0)</PROPERTY>
</VARIABLE>
<VARIABLE TYPE="nature">
	<NAME>number_of_reviews</NAME>
	<OUTCOME>some_reviews</OUTCOME>
	<OUTCOME>lot_of_reviews</OUTCOME>
	<OUTCOME>few_reviews</OUTCOME>
	<OUTCOME>no_reviews</OUTCOME>
	<PROPERTY>position = (1314,1632)</PROPERTY>
</VARIABLE>
<VARIABLE TYPE="nature">
	<NAME>review_scores_rating</NAME>
	<OUTCOME>low_rating</OUTCOME>
	<OUTCOME>top_rating</OUTCOME>
	<OUTCOME>nice_rating</OUTCOME>
	<OUTCOME>good_rating</OUTCOME>
	<PROPERTY>position = (1168,1728)</PROPERTY>
</VARIABLE>
<VARIABLE TYPE="nature">
	<NAME>tv</NAME>
	<OUTCOME>True</OUTCOME>
	<OUTCOME>False</OUTCOME>
	<PROPERTY>position = (730,1632)</PROPERTY>
</VARIABLE>
<VARIABLE TYPE="nature">
	<NAME>dishes_and_silverware</NAME>
	<OUTCOME>True</OUTCOME>
	<OUTCOME>False</OUTCOME>
	<PROPERTY>position = (876,576)</PROPERTY>
</VARIABLE>
<VARIABLE TYPE="nature">
	<NAME>essentials</NAME>
	<OUTCOME>True</OUTCOME>
	<OUTCOME>False</OUTCOME>
	<PROPERTY>position = (292,672)</PROPERTY>
</VARIABLE>
<VARIABLE TYPE="nature">
	<NAME>kitchen</NAME>
	<OUTCOME>True</OUTCOME>
	<OUTCOME>False</OUTCOME>
	<PROPERTY>position = (438,1344)</PROPERTY>
</VARIABLE>
<VARIABLE TYPE="nature">
	<NAME>iron</NAME>
	<OUTCOME>True</OUTCOME>
	<OUTCOME>False</OUTCOME>
	<PROPERTY>position = (730,288)</PROPERTY>
</VARIABLE>
<VARIABLE TYPE="nature">
	<NAME>hair_dryer</NAME>
	<OUTCOME>True</OUTCOME>
	<OUTCOME>False</OUTCOME>
	<PROPERTY>position = (876,192)</PROPERTY>
</VARIABLE>
<VARIABLE TYPE="nature">
	<NAME>cooking_basics</NAME>
	<OUTCOME>True</OUTCOME>
	<OUTCOME>False</OUTCOME>
	<PROPERTY>position = (584,960)</PROPERTY>
</VARIABLE>
<VARIABLE TYPE="nature">
	<NAME>heating</NAME>
	<OUTCOME>True</OUTCOME>
	<OUTCOME>False</OUTCOME>
	<PROPERTY>position = (584,1536)</PROPERTY>
</VARIABLE>
<VARIABLE TYPE="nature">
	<NAME>bed_linens</NAME>
	<OUTCOME>True</OUTCOME>
	<OUTCOME>False</OUTCOME>
	<PROPERTY>position = (1022,1152)</PROPERTY>
</VARIABLE>
<VARIABLE TYPE="nature">
	<NAME>hangers</NAME>
	<OUTCOME>True</OUTCOME>
	<OUTCOME>False</OUTCOME>
	<PROPERTY>position = (876,384)</PROPERTY>
</VARIABLE>
<VARIABLE TYPE="nature">
	<NAME>dedicated_workspace</NAME>
	<OUTCOME>True</OUTCOME>
	<OUTCOME>False</OUTCOME>
	<PROPERTY>position = (1168,576)</PROPERTY>
</VARIABLE>
<VARIABLE TYPE="nature">
	<NAME>hot_water</NAME>
	<OUTCOME>True</OUTCOME>
	<OUTCOME>False</OUTCOME>
	<PROPERTY>position = (1022,480)</PROPERTY>
</VARIABLE>
<VARIABLE TYPE="nature">
	<NAME>long_term_stays_allowed</NAME>
	<OUTCOME>True</OUTCOME>
	<OUTCOME>False</OUTCOME>
	<PROPERTY>position = (438,1056)</PROPERTY>
</VARIABLE>
<VARIABLE TYPE="nature">
	<NAME>washer</NAME>
	<OUTCOME>True</OUTCOME>
	<OUTCOME>False</OUTCOME>
	<PROPERTY>position = (292,1440)</PROPERTY>
</VARIABLE>
<VARIABLE TYPE="nature">
	<NAME>elevator</NAME>
	<OUTCOME>False</OUTCOME>
	<OUTCOME>True</OUTCOME>
	<PROPERTY>position = (438,1632)</PROPERTY>
</VARIABLE>
<VARIABLE TYPE="nature">
	<NAME>shampoo</NAME>
	<OUTCOME>False</OUTCOME>
	<OUTCOME>True</OUTCOME>
	<PROPERTY>position = (438,768)</PROPERTY>
</VARIABLE>
<VARIABLE TYPE="nature">
	<NAME>wifi</NAME>
	<OUTCOME>False</OUTCOME>
	<OUTCOME>True</OUTCOME>
	<PROPERTY>position = (584,1728)</PROPERTY>
</VARIABLE>
<VARIABLE TYPE="nature">
	<NAME>air_conditioning</NAME>
	<OUTCOME>False</OUTCOME>
	<OUTCOME>True</OUTCOME>
	<PROPERTY>position = (584,1632)</PROPERTY>
</VARIABLE>
<VARIABLE TYPE="nature">
	<NAME>oven</NAME>
	<OUTCOME>False</OUTCOME>
	<OUTCOME>True</OUTCOME>
	<PROPERTY>position = (584,1344)</PROPERTY>
</VARIABLE>
<VARIABLE TYPE="nature">
	<NAME>stove</NAME>
	<OUTCOME>False</OUTCOME>
	<OUTCOME>True</OUTCOME>
	<PROPERTY>position = (730,1248)</PROPERTY>
</VARIABLE>
<VARIABLE TYPE="nature">
	<NAME>coffee_maker</NAME>
	<OUTCOME>False</OUTCOME>
	<OUTCOME>True</OUTCOME>
	<PROPERTY>position = (1168,1536)</PROPERTY>
</VARIABLE>
<VARIABLE TYPE="nature">
	<NAME>dishwasher</NAME>
	<OUTCOME>False</OUTCOME>
	<OUTCOME>True</OUTCOME>
	<PROPERTY>position = (730,1440)</PROPERTY>
</VARIABLE>
<VARIABLE TYPE="nature">
	<NAME>refrigerator</NAME>
	<OUTCOME>False</OUTCOME>
	<OUTCOME>True</OUTCOME>
	<PROPERTY>position = (1022,1056)</PROPERTY>
</VARIABLE>
<VARIABLE TYPE="nature">
	<NAME>microwave</NAME>
	<OUTCOME>False</OUTCOME>
	<OUTCOME>True</OUTCOME>
	<PROPERTY>position = (438,1152)</PROPERTY>
</VARIABLE>
<DEFINITION>
<FOR>class_of_price</FOR>
	<GIVEN>number_of_reviews</GIVEN>
	<GIVEN>is_center</GIVEN>
<TABLE>
0.8048780487804879 0.1035929714135851 0.06530291109362707 0.01914503015997902 0.007081038552321007 
0.704932343954605 0.04233958969882148 0.1732867743343518 0.07202095154954169 0.007420340462680052 
0.8131677018633541 0.06037267080745341 0.10062111801242236 0.022608695652173914 0.003229813664596273 
0.6324089178901577 0.02011963023382273 0.2669929309407287 0.07884719956498097 0.0016313213703099511 
0.7516688918558078 0.15086782376502003 0.05740987983978638 0.025367156208277702 0.014686248331108143 
0.7270588235294118 0.09176470588235294 0.11529411764705882 0.058823529411764705 0.007058823529411765 
0.6568478590950501 0.24142119647737625 0.056179775280898875 0.022775584573337383 0.022775584573337383 
0.6764568764568765 0.15524475524475526 0.10116550116550116 0.05174825174825175 0.015384615384615385 
</TABLE>
</DEFINITION>
<DEFINITION>
<FOR>host_response_rate</FOR>
	<GIVEN>dishes_and_silverware</GIVEN>
	<GIVEN>shampoo</GIVEN>
<TABLE>
0.6639784946236559 0.1693548387096774 0.007296466973886329 0.15937019969278035 
0.7924462114125351 0.13786248830682882 0.015084190832553789 0.05460710944808232 
0.801125082726671 0.15122435473196558 0.02614162806088683 0.021508934480476506 
0.8088168113293741 0.1317953403380539 0.03860210141617177 0.020785746916400182 
</TABLE>
</DEFINITION>
<DEFINITION>
<FOR>host_is_superhost</FOR>
	<GIVEN>review_scores_rating</GIVEN>
	<GIVEN>number_of_reviews</GIVEN>
<TABLE>
0.9315625 0.0684375 
0.8291307232913072 0.17086927670869276 
0.9788461538461538 0.021153846153846155 
0.9830246913580247 0.016975308641975308 
0.7699771689497716 0.2300228310502283 
0.1994535519125683 0.8005464480874317 
0.9243827160493827 0.07561728395061729 
0.9318555008210181 0.06814449917898194 
0.7031914893617022 0.2968085106382979 
0.382679180887372 0.617320819112628 
0.5 0.5 
0.5 0.5 
0.8523809523809524 0.14761904761904762 
0.6014492753623188 0.39855072463768115 
0.5 0.5 
0.9638452914798207 0.03615470852017937 
</TABLE>
</DEFINITION>
<DEFINITION>
<FOR>is_center</FOR>
	<GIVEN>neighbourhood_cleansed</GIVEN>
<TABLE>
0.9989816700610998 0.0010183299389002036 
0.00510204081632653 0.9948979591836735 
0.999251497005988 7.485029940119761E-4 
0.9985294117647059 0.0014705882352941176 
0.999124343257443 8.756567425569177E-4 
0.9988179669030733 0.001182033096926714 
0.9988095238095238 0.0011904761904761906 
0.9974226804123711 0.002577319587628866 
0.00847457627118644 0.9915254237288136 
0.0033783783783783786 0.9966216216216216 
0.9974358974358974 0.002564102564102564 
0.9986449864498645 0.0013550135501355014 
0.002232142857142857 0.9977678571428571 
0.003125 0.996875 
0.003048780487804878 0.9969512195121951 
0.0036231884057971015 0.9963768115942029 
0.9979166666666667 0.0020833333333333333 
0.9982456140350877 0.0017543859649122807 
0.9952830188679245 0.0047169811320754715 
0.9920634920634921 0.007936507936507936 
0.0037593984962406013 0.9962406015037594 
0.02631578947368421 0.9736842105263158 
0.9989316239316239 0.0010683760683760685 
0.0058823529411764705 0.9941176470588236 
0.0021008403361344537 0.9978991596638656 
0.9985994397759104 0.0014005602240896359 
0.004310344827586207 0.9956896551724138 
0.0035460992907801418 0.9964539007092199 
0.9962406015037594 0.0037593984962406013 
0.0038461538461538464 0.9961538461538462 
0.003703703703703704 0.9962962962962963 
0.02 0.98 
0.0037313432835820895 0.996268656716418 
0.9939024390243902 0.006097560975609756 
0.007692307692307693 0.9923076923076923 
0.9901960784313726 0.00980392156862745 
0.9977064220183486 0.0022935779816513763 
0.007042253521126761 0.9929577464788732 
0.0030864197530864196 0.9969135802469136 
0.029411764705882353 0.9705882352941176 
0.9957983193277311 0.004201680672268907 
0.014705882352941176 0.9852941176470589 
0.017857142857142856 0.9821428571428571 
0.9583333333333334 0.041666666666666664 
0.03333333333333333 0.9666666666666667 
0.023809523809523808 0.9761904761904762 
0.004807692307692308 0.9951923076923077 
0.00980392156862745 0.9901960784313726 
0.9930555555555556 0.006944444444444444 
0.03125 0.96875 
0.99 0.01 
0.0045871559633027525 0.9954128440366973 
0.018518518518518517 0.9814814814814815 
0.007692307692307693 0.9923076923076923 
0.00980392156862745 0.9901960784313726 
0.011111111111111112 0.9888888888888889 
0.013888888888888888 0.9861111111111112 
0.027777777777777776 0.9722222222222222 
0.009259259259259259 0.9907407407407407 
0.011363636363636364 0.9886363636363636 
0.0078125 0.9921875 
0.025 0.975 
0.03333333333333333 0.9666666666666667 
0.045454545454545456 0.9545454545454546 
0.9666666666666667 0.03333333333333333 
0.02 0.98 
0.08333333333333333 0.9166666666666666 
0.9 0.1 
0.8333333333333334 0.16666666666666666 
0.16666666666666666 0.8333333333333334 
0.02631578947368421 0.9736842105263158 
0.16666666666666666 0.8333333333333334 
0.1 0.9 
0.0625 0.9375 
0.03333333333333333 0.9666666666666667 
0.125 0.875 
0.16666666666666666 0.8333333333333334 
0.1 0.9 
0.16666666666666666 0.8333333333333334 
0.16666666666666666 0.8333333333333334 
0.9285714285714286 0.07142857142857142 
0.16666666666666666 0.8333333333333334 
</TABLE>
</DEFINITION>
<DEFINITION>
<FOR>neighbourhood_cleansed</FOR>
<TABLE>
0.05267962624852325 0.010471485339920525 0.07168939963484051 0.03646224895285147 0.06127161421974009 0.04537643647298894 0.045054236924068305 0.020781870905380733 0.006282891203952315 0.01584147782193105 0.020889270755020943 0.03957684459241757 0.02400386639458705 0.017130276017613574 0.017559875416174417 0.014767479325528944 0.025722263988830416 0.030555257222639888 0.011330684137042208 0.006712490602513156 0.014230480077327893 0.0019868972183438942 0.05020942970679841 0.009075287294597787 0.025507464289549996 0.03828804639673505 0.012404682633444313 0.015089678874449576 0.014230480077327893 0.013908280528407261 0.014445279776608312 0.0026312963161851575 0.014337879926968103 0.008753087745677157 0.006927290301793577 0.005423692406830631 0.023359467296745786 0.00757168939963484 0.017345075716893997 0.0017720975190634732 0.012726882182364944 0.003597894962947052 0.0029534958651057886 0.0012350982708624208 0.0015572978197830522 0.0022016969176243155 0.011115884437761786 0.005423692406830631 0.007679089249275051 0.0016646976694232628 0.00531629255719042 0.01165288368596284 0.0028460960154655783 0.006927290301793577 0.005423692406830631 0.0047792933089893675 0.003812694662227473 0.0018794973687036838 0.005745891955751262 0.004671893459349157 0.006819890452153367 0.0020942970679841046 0.0015572978197830522 0.0011276984212222102 0.0015572978197830522 0.0026312963161851575 5.906991730211578E-4 4.8329932338094726E-4 2.6849962410052626E-4 2.6849962410052626E-4 0.0019868972183438942 2.6849962410052626E-4 4.8329932338094726E-4 8.054988723015788E-4 0.0015572978197830522 3.7589947374073676E-4 2.6849962410052626E-4 4.8329932338094726E-4 2.6849962410052626E-4 2.6849962410052626E-4 6.980990226613683E-4 2.6849962410052626E-4 
</TABLE>
</DEFINITION>
<DEFINITION>
<FOR>number_of_reviews</FOR>
	<GIVEN>dishes_and_silverware</GIVEN>
	<GIVEN>coffee_maker</GIVEN>
<TABLE>
0.39742183214481624 0.2948436642896325 0.07761930883159628 0.23011519473395503 
0.32982689747003996 0.496271637816245 0.045139813581890814 0.12876165113182422 
0.29978941034897716 0.11025872442839951 0.07776774969915765 0.5121841155234657 
0.23803191489361702 0.4295212765957447 0.03856382978723404 0.29388297872340424 
</TABLE>
</DEFINITION>
<DEFINITION>
<FOR>review_scores_rating</FOR>
	<GIVEN>number_of_reviews</GIVEN>
	<GIVEN>coffee_maker</GIVEN>
<TABLE>
0.585075493612079 0.25522648083623695 0.12456445993031359 0.0351335656213705 
0.445823927765237 0.32844243792325056 0.19224981188863807 0.03348382242287434 
0.6657458563535912 0.024861878453038673 0.29116022099447514 0.018232044198895028 
0.4464461994076999 0.07922013820335637 0.44842053307008883 0.025913129318854887 
0.47506234413965087 0.5224438902743143 0.0012468827930174563 0.0012468827930174563 
0.37567567567567567 0.6189189189189189 0.002702702702702703 0.002702702702702703 
0.12600094206311824 0.1980687706076307 2.3551577955723034E-4 0.6756947715496938 
0.0949579831932773 0.3168067226890756 8.403361344537816E-4 0.5873949579831933 
</TABLE>
</DEFINITION>
<DEFINITION>
<FOR>tv</FOR>
	<GIVEN>heating</GIVEN>
	<GIVEN>bed_linens</GIVEN>
<TABLE>
0.6738450433108758 0.32615495668912414 
0.7676600441501104 0.23233995584988962 
0.4792284866468843 0.5207715133531158 
0.547808764940239 0.45219123505976094 
</TABLE>
</DEFINITION>
<DEFINITION>
<FOR>dishes_and_silverware</FOR>
	<GIVEN>hot_water</GIVEN>
	<GIVEN>hangers</GIVEN>
<TABLE>
0.8395755305867666 0.16042446941323346 
0.6091234347048301 0.39087656529516995 
0.20681458003169573 0.7931854199683043 
0.11234567901234568 0.8876543209876543 
</TABLE>
</DEFINITION>
<DEFINITION>
<FOR>essentials</FOR>
	<GIVEN>hangers</GIVEN>
	<GIVEN>dishes_and_silverware</GIVEN>
<TABLE>
0.9898999803883114 0.010100019611688566 
0.9435651811745106 0.05643481882548938 
0.9067085953878407 0.09329140461215933 
0.6680801850424055 0.33191981495759443 
</TABLE>
</DEFINITION>
<DEFINITION>
<FOR>kitchen</FOR>
	<GIVEN>stove</GIVEN>
	<GIVEN>essentials</GIVEN>
<TABLE>
0.94377990430622 0.056220095693779906 
0.736159169550173 0.263840830449827 
0.9946437468858994 0.005356253114100647 
0.9464285714285714 0.05357142857142857 
</TABLE>
</DEFINITION>
<DEFINITION>
<FOR>iron</FOR>
	<GIVEN>hair_dryer</GIVEN>
<TABLE>
0.8584511370620774 0.14154886293792257 
0.20008795074758134 0.7999120492524187 
</TABLE>
</DEFINITION>
<DEFINITION>
<FOR>hair_dryer</FOR>
	<GIVEN>is_center</GIVEN>
<TABLE>
0.8850952621817568 0.11490473781824313 
0.8636635737803053 0.1363364262196947 
</TABLE>
</DEFINITION>
<DEFINITION>
<FOR>cooking_basics</FOR>
	<GIVEN>dishes_and_silverware</GIVEN>
	<GIVEN>host_response_rate</GIVEN>
<TABLE>
0.9053609217023277 0.09463907829767224 
0.8820987654320988 0.11790123456790123 
0.831081081081081 0.16891891891891891 
0.4365079365079365 0.5634920634920635 
0.08839315665883932 0.9116068433411607 
0.22147001934235977 0.7785299806576402 
0.06048387096774194 0.9395161290322581 
0.25 0.75 
</TABLE>
</DEFINITION>
<DEFINITION>
<FOR>heating</FOR>
	<GIVEN>washer</GIVEN>
	<GIVEN>dedicated_workspace</GIVEN>
<TABLE>
0.9750906661576637 0.024909333842336324 
0.9313852813852814 0.06861471861471861 
0.9091360476663356 0.09086395233366434 
0.7110027855153204 0.2889972144846797 
</TABLE>
</DEFINITION>
<DEFINITION>
<FOR>bed_linens</FOR>
	<GIVEN>refrigerator</GIVEN>
	<GIVEN>hot_water</GIVEN>
<TABLE>
0.3298204527712724 0.6701795472287275 
0.017635658914728684 0.9823643410852713 
0.7898669396110543 0.21013306038894575 
0.3153409090909091 0.6846590909090909 
</TABLE>
</DEFINITION>
<DEFINITION>
<FOR>hangers</FOR>
	<GIVEN>hair_dryer</GIVEN>
	<GIVEN>iron</GIVEN>
<TABLE>
0.8856672394043528 0.11433276059564719 
0.7799479166666666 0.22005208333333334 
0.7653508771929824 0.23464912280701755 
0.2653846153846154 0.7346153846153847 
</TABLE>
</DEFINITION>
<DEFINITION>
<FOR>dedicated_workspace</FOR>
	<GIVEN>hangers</GIVEN>
	<GIVEN>hot_water</GIVEN>
<TABLE>
0.7923131799536294 0.2076868200463706 
0.6669307976756471 0.3330692023243529 
0.5035778175313059 0.4964221824686941 
0.21358024691358024 0.7864197530864198 
</TABLE>
</DEFINITION>
<DEFINITION>
<FOR>hot_water</FOR>
	<GIVEN>hangers</GIVEN>
	<GIVEN>hair_dryer</GIVEN>
<TABLE>
0.7624929418407679 0.23750705815923207 
0.49399038461538464 0.5060096153846154 
0.4310836501901141 0.5689163498098859 
0.1461218836565097 0.8538781163434903 
</TABLE>
</DEFINITION>
<DEFINITION>
<FOR>long_term_stays_allowed</FOR>
	<GIVEN>host_response_rate</GIVEN>
	<GIVEN>cooking_basics</GIVEN>
<TABLE>
0.858167233835683 0.14183276616431698 
0.7363782051282052 0.2636217948717949 
0.913751507840772 0.08624849215922799 
0.8544176706827309 0.14558232931726908 
0.7608695652173914 0.2391304347826087 
0.686046511627907 0.313953488372093 
0.9882075471698113 0.01179245283018868 
0.988599348534202 0.011400651465798045 
</TABLE>
</DEFINITION>
<DEFINITION>
<FOR>washer</FOR>
	<GIVEN>kitchen</GIVEN>
	<GIVEN>iron</GIVEN>
<TABLE>
0.8624098124098124 0.1375901875901876 
0.733350812794966 0.2666491872050341 
0.5053191489361702 0.4946808510638298 
0.2032258064516129 0.7967741935483871 
</TABLE>
</DEFINITION>
<DEFINITION>
<FOR>elevator</FOR>
	<GIVEN>kitchen</GIVEN>
	<GIVEN>heating</GIVEN>
<TABLE>
0.4635335178721868 0.5364664821278132 
0.5558712121212122 0.4441287878787879 
0.5928381962864722 0.40716180371352784 
0.9083333333333333 0.09166666666666666 
</TABLE>
</DEFINITION>
<DEFINITION>
<FOR>shampoo</FOR>
	<GIVEN>hangers</GIVEN>
	<GIVEN>essentials</GIVEN>
<TABLE>
0.2263776835771913 0.7736223164228087 
0.5855614973262032 0.4144385026737968 
0.4984603541185527 0.5015396458814473 
0.8389473684210527 0.16105263157894736 
</TABLE>
</DEFINITION>
<DEFINITION>
<FOR>wifi</FOR>
	<GIVEN>iron</GIVEN>
	<GIVEN>number_of_reviews</GIVEN>
<TABLE>
0.0703125 0.9296875 
0.03611432985708768 0.9638856701429124 
0.08508158508158509 0.914918414918415 
0.10421225382932166 0.8957877461706784 
0.17694566813509544 0.8230543318649045 
0.09264705882352942 0.9073529411764706 
0.23548387096774193 0.7645161290322581 
0.3260135135135135 0.6739864864864865 
</TABLE>
</DEFINITION>
<DEFINITION>
<FOR>air_conditioning</FOR>
	<GIVEN>dishwasher</GIVEN>
	<GIVEN>heating</GIVEN>
<TABLE>
0.3222854096321308 0.6777145903678692 
0.6099744245524297 0.3900255754475703 
0.15413533834586465 0.8458646616541353 
0.4137055837563452 0.5862944162436549 
</TABLE>
</DEFINITION>
<DEFINITION>
<FOR>oven</FOR>
	<GIVEN>refrigerator</GIVEN>
	<GIVEN>stove</GIVEN>
<TABLE>
0.9874736286919831 0.012526371308016877 
0.6014492753623188 0.39855072463768115 
0.5234826589595376 0.47651734104046245 
0.234921816827997 0.7650781831720029 
</TABLE>
</DEFINITION>
<DEFINITION>
<FOR>stove</FOR>
	<GIVEN>refrigerator</GIVEN>
	<GIVEN>bed_linens</GIVEN>
<TABLE>
0.9027777777777778 0.09722222222222222 
0.9930739758325965 0.006926024167403478 
0.20484472049689442 0.7951552795031056 
0.4030979827089337 0.5969020172910663 
</TABLE>
</DEFINITION>
<DEFINITION>
<FOR>coffee_maker</FOR>
	<GIVEN>refrigerator</GIVEN>
	<GIVEN>dishwasher</GIVEN>
<TABLE>
0.9430396954866775 0.05696030451332246 
0.226775956284153 0.773224043715847 
0.3489316239316239 0.6510683760683761 
0.2663520989261308 0.7336479010738692 
</TABLE>
</DEFINITION>
<DEFINITION>
<FOR>dishwasher</FOR>
	<GIVEN>refrigerator</GIVEN>
	<GIVEN>oven</GIVEN>
<TABLE>
0.9599841521394612 0.04001584786053883 
0.58 0.42 
0.6532016756433273 0.3467983243566726 
0.33364510956707644 0.6663548904329236 
</TABLE>
</DEFINITION>
<DEFINITION>
<FOR>refrigerator</FOR>
	<GIVEN>dishes_and_silverware</GIVEN>
	<GIVEN>cooking_basics</GIVEN>
<TABLE>
0.06693648816936489 0.9330635118306351 
0.24604221635883905 0.753957783641161 
0.6571782178217822 0.34282178217821785 
0.9370066788099575 0.0629933211900425 
</TABLE>
</DEFINITION>
<DEFINITION>
<FOR>microwave</FOR>
	<GIVEN>refrigerator</GIVEN>
	<GIVEN>dishes_and_silverware</GIVEN>
<TABLE>
0.7612966601178782 0.2387033398821218 
0.9914976133651552 0.008502386634844868 
0.37171896585750935 0.6282810341424906 
0.4147398843930636 0.5852601156069365 
</TABLE>
</DEFINITION>
</NETWORK>
</BIF>
