<?xml version="1.0"?>
<!-- DTD for the XMLBIF 0.3 format -->
<!DOCTYPE BIF [
	<!ELEMENT BIF ( NETWORK )*>
	      <!ATTLIST BIF VERSION CDATA #REQUIRED>
	<!ELEMENT NETWORK ( NAME, ( PROPERTY | VARIABLE | DEFINITION )* )>
	<!ELEMENT NAME (#PCDATA)>
	<!ELEMENT VARIABLE ( NAME, ( OUTCOME |  PROPERTY )* ) >
	      <!ATTLIST VARIABLE TYPE (nature|decision|utility) "nature">
	<!ELEMENT OUTCOME (#PCDATA)>
	<!ELEMENT DEFINITION ( FOR | GIVEN | TABLE | PROPERTY )* >
	<!ELEMENT FOR (#PCDATA)>
	<!ELEMENT GIVEN (#PCDATA)>
	<!ELEMENT TABLE (#PCDATA)>
	<!ELEMENT PROPERTY (#PCDATA)>
]>


<BIF VERSION="0.3">
<NETWORK>
<NAME>bn_dataset-weka.filters.unsupervised.attribute.ReplaceMissingValues</NAME>
<VARIABLE TYPE="nature">
	<NAME>class_of_price</NAME>
	<OUTCOME>medium</OUTCOME>
	<OUTCOME>expensive</OUTCOME>
	<OUTCOME>affordable</OUTCOME>
	<OUTCOME>economy</OUTCOME>
	<OUTCOME>top_level</OUTCOME>
	<PROPERTY>position = (146,480)</PROPERTY>
</VARIABLE>
<VARIABLE TYPE="nature">
	<NAME>host_response_rate</NAME>
	<OUTCOME>always_responds</OUTCOME>
	<OUTCOME>usually_responds</OUTCOME>
	<OUTCOME>never_responds</OUTCOME>
	<OUTCOME>often_responds</OUTCOME>
	<PROPERTY>position = (438,576)</PROPERTY>
</VARIABLE>
<VARIABLE TYPE="nature">
	<NAME>host_is_superhost</NAME>
	<OUTCOME>False</OUTCOME>
	<OUTCOME>True</OUTCOME>
	<PROPERTY>position = (292,576)</PROPERTY>
</VARIABLE>
<VARIABLE TYPE="nature">
	<NAME>is_center</NAME>
	<OUTCOME>True</OUTCOME>
	<OUTCOME>False</OUTCOME>
	<PROPERTY>position = (146,672)</PROPERTY>
</VARIABLE>
<VARIABLE TYPE="nature">
	<NAME>neighbourhood_cleansed</NAME>
	<OUTCOME>NAVIGLI</OUTCOME>
	<OUTCOME>&apos;VIALE MONZA&apos;</OUTCOME>
	<OUTCOME>&apos;BUENOS AIRES&apos;</OUTCOME>
	<OUTCOME>CENTRALE</OUTCOME>
	<OUTCOME>DUOMO</OUTCOME>
	<OUTCOME>BRERA</OUTCOME>
	<OUTCOME>TICINESE</OUTCOME>
	<OUTCOME>WASHINGTON</OUTCOME>
	<OUTCOME>LAMBRATE</OUTCOME>
	<OUTCOME>VILLAPIZZONE</OUTCOME>
	<OUTCOME>GUASTALLA</OUTCOME>
	<OUTCOME>ISOLA</OUTCOME>
	<OUTCOME>&apos;CITTA STUDI&apos;</OUTCOME>
	<OUTCOME>GIAMBELLINO</OUTCOME>
	<OUTCOME>&apos;DE ANGELI ROSA&apos;</OUTCOME>
	<OUTCOME>&apos;BANDE NERE&apos;</OUTCOME>
	<OUTCOME>TORTONA</OUTCOME>
	<OUTCOME>&apos;XXII MARZO&apos;</OUTCOME>
	<OUTCOME>GHISOLFA</OUTCOME>
	<OUTCOME>PORTELLO</OUTCOME>
	<OUTCOME>UMBRIA</OUTCOME>
	<OUTCOME>&apos;PARCO FORLANINI&apos;</OUTCOME>
	<OUTCOME>SARPI</OUTCOME>
	<OUTCOME>BOVISA</OUTCOME>
	<OUTCOME>&apos;MAGENTA VITTORE&apos;</OUTCOME>
	<OUTCOME>LORETO</OUTCOME>
	<OUTCOME>STADERA</OUTCOME>
	<OUTCOME>VIGENTINA</OUTCOME>
	<OUTCOME>&apos;GARIBALDI REPUBBLICA&apos;</OUTCOME>
	<OUTCOME>LODI</OUTCOME>
	<OUTCOME>TIBALDI</OUTCOME>
	<OUTCOME>&apos;FORZE ARMATE&apos;</OUTCOME>
	<OUTCOME>&apos;S. CRISTOFORO&apos;</OUTCOME>
	<OUTCOME>PAGANO</OUTCOME>
	<OUTCOME>&apos;PARCO LAMBRO&apos;</OUTCOME>
	<OUTCOME>FARINI</OUTCOME>
	<OUTCOME>&apos;PORTA ROMANA&apos;</OUTCOME>
	<OUTCOME>GRECO</OUTCOME>
	<OUTCOME>PADOVA</OUTCOME>
	<OUTCOME>ORTOMERCATO</OUTCOME>
	<OUTCOME>MACIACHINI</OUTCOME>
	<OUTCOME>MAGGIORE</OUTCOME>
	<OUTCOME>LORENTEGGIO</OUTCOME>
	<OUTCOME>&apos;TRE TORRI&apos;</OUTCOME>
	<OUTCOME>BARONA</OUTCOME>
	<OUTCOME>ADRIANO</OUTCOME>
	<OUTCOME>CORSICA</OUTCOME>
	<OUTCOME>&apos;RONCHETTO SUL NAVIGLIO&apos;</OUTCOME>
	<OUTCOME>&apos;SCALO ROMANA&apos;</OUTCOME>
	<OUTCOME>&apos;QUARTO CAGNINO&apos;</OUTCOME>
	<OUTCOME>&apos;EX OM&apos;</OUTCOME>
	<OUTCOME>DERGANO</OUTCOME>
	<OUTCOME>ROGOREDO</OUTCOME>
	<OUTCOME>SELINUNTE</OUTCOME>
	<OUTCOME>&apos;S. SIRO&apos;</OUTCOME>
	<OUTCOME>GALLARATESE</OUTCOME>
	<OUTCOME>MECENATE</OUTCOME>
	<OUTCOME>&apos;QT 8&apos;</OUTCOME>
	<OUTCOME>&apos;NIGUARDA GRANDA&apos;</OUTCOME>
	<OUTCOME>RIPAMONTI</OUTCOME>
	<OUTCOME>AFFORI</OUTCOME>
	<OUTCOME>BAGGIO</OUTCOME>
	<OUTCOME>&apos;PARCO MONLUE LAMBRO&apos;</OUTCOME>
	<OUTCOME>GRATOSOGLIO</OUTCOME>
	<OUTCOME>&apos;PARCO SEMPIONE&apos;</OUTCOME>
	<OUTCOME>&apos;QUARTO OGGIARO&apos;</OUTCOME>
	<OUTCOME>COMASINA</OUTCOME>
	<OUTCOME>BOVISASCA</OUTCOME>
	<OUTCOME>&apos;PARCO AGRICOLO SUD&apos;</OUTCOME>
	<OUTCOME>&apos;PARCO NORD&apos;</OUTCOME>
	<OUTCOME>BICOCCA</OUTCOME>
	<OUTCOME>CHIARAVALLE</OUTCOME>
	<OUTCOME>&apos;QUINTO ROMANO&apos;</OUTCOME>
	<OUTCOME>&apos;TRIULZO SUPERIORE&apos;</OUTCOME>
	<OUTCOME>BRUZZANO</OUTCOME>
	<OUTCOME>FIGINO</OUTCOME>
	<OUTCOME>&apos;PARCO DEI NAVIGLI&apos;</OUTCOME>
	<OUTCOME>CANTALUPA</OUTCOME>
	<OUTCOME>TRENNO</OUTCOME>
	<OUTCOME>&apos;PARCO DELLE ABBAZIE&apos;</OUTCOME>
	<OUTCOME>&apos;GIARDINI PORTA VENEZIA&apos;</OUTCOME>
	<OUTCOME>&apos;PARCO BOSCO IN CITT&apos;</OUTCOME>
	<PROPERTY>position = (146,576)</PROPERTY>
</VARIABLE>
<VARIABLE TYPE="nature">
	<NAME>number_of_reviews</NAME>
	<OUTCOME>some_reviews</OUTCOME>
	<OUTCOME>lot_of_reviews</OUTCOME>
	<OUTCOME>few_reviews</OUTCOME>
	<OUTCOME>no_reviews</OUTCOME>
	<PROPERTY>position = (146,384)</PROPERTY>
</VARIABLE>
<VARIABLE TYPE="nature">
	<NAME>review_scores_rating</NAME>
	<OUTCOME>low_rating</OUTCOME>
	<OUTCOME>top_rating</OUTCOME>
	<OUTCOME>nice_rating</OUTCOME>
	<OUTCOME>good_rating</OUTCOME>
	<PROPERTY>position = (292,480)</PROPERTY>
</VARIABLE>
<VARIABLE TYPE="nature">
	<NAME>tv</NAME>
	<OUTCOME>True</OUTCOME>
	<OUTCOME>False</OUTCOME>
	<PROPERTY>position = (584,864)</PROPERTY>
</VARIABLE>
<VARIABLE TYPE="nature">
	<NAME>dishes_and_silverware</NAME>
	<OUTCOME>True</OUTCOME>
	<OUTCOME>False</OUTCOME>
	<PROPERTY>position = (292,288)</PROPERTY>
</VARIABLE>
<VARIABLE TYPE="nature">
	<NAME>essentials</NAME>
	<OUTCOME>True</OUTCOME>
	<OUTCOME>False</OUTCOME>
	<PROPERTY>position = (0,192)</PROPERTY>
</VARIABLE>
<VARIABLE TYPE="nature">
	<NAME>kitchen</NAME>
	<OUTCOME>True</OUTCOME>
	<OUTCOME>False</OUTCOME>
	<PROPERTY>position = (730,576)</PROPERTY>
</VARIABLE>
<VARIABLE TYPE="nature">
	<NAME>iron</NAME>
	<OUTCOME>True</OUTCOME>
	<OUTCOME>False</OUTCOME>
	<PROPERTY>position = (584,96)</PROPERTY>
</VARIABLE>
<VARIABLE TYPE="nature">
	<NAME>hair_dryer</NAME>
	<OUTCOME>True</OUTCOME>
	<OUTCOME>False</OUTCOME>
	<PROPERTY>position = (292,0)</PROPERTY>
</VARIABLE>
<VARIABLE TYPE="nature">
	<NAME>cooking_basics</NAME>
	<OUTCOME>True</OUTCOME>
	<OUTCOME>False</OUTCOME>
	<PROPERTY>position = (292,384)</PROPERTY>
</VARIABLE>
<VARIABLE TYPE="nature">
	<NAME>heating</NAME>
	<OUTCOME>True</OUTCOME>
	<OUTCOME>False</OUTCOME>
	<PROPERTY>position = (584,768)</PROPERTY>
</VARIABLE>
<VARIABLE TYPE="nature">
	<NAME>bed_linens</NAME>
	<OUTCOME>True</OUTCOME>
	<OUTCOME>False</OUTCOME>
	<PROPERTY>position = (438,480)</PROPERTY>
</VARIABLE>
<VARIABLE TYPE="nature">
	<NAME>hangers</NAME>
	<OUTCOME>True</OUTCOME>
	<OUTCOME>False</OUTCOME>
	<PROPERTY>position = (146,96)</PROPERTY>
</VARIABLE>
<VARIABLE TYPE="nature">
	<NAME>dedicated_workspace</NAME>
	<OUTCOME>True</OUTCOME>
	<OUTCOME>False</OUTCOME>
	<PROPERTY>position = (146,192)</PROPERTY>
</VARIABLE>
<VARIABLE TYPE="nature">
	<NAME>hot_water</NAME>
	<OUTCOME>True</OUTCOME>
	<OUTCOME>False</OUTCOME>
	<PROPERTY>position = (292,192)</PROPERTY>
</VARIABLE>
<VARIABLE TYPE="nature">
	<NAME>long_term_stays_allowed</NAME>
	<OUTCOME>True</OUTCOME>
	<OUTCOME>False</OUTCOME>
	<PROPERTY>position = (438,672)</PROPERTY>
</VARIABLE>
<VARIABLE TYPE="nature">
	<NAME>washer</NAME>
	<OUTCOME>True</OUTCOME>
	<OUTCOME>False</OUTCOME>
	<PROPERTY>position = (584,672)</PROPERTY>
</VARIABLE>
<VARIABLE TYPE="nature">
	<NAME>elevator</NAME>
	<OUTCOME>False</OUTCOME>
	<OUTCOME>True</OUTCOME>
	<PROPERTY>position = (730,672)</PROPERTY>
</VARIABLE>
<VARIABLE TYPE="nature">
	<NAME>shampoo</NAME>
	<OUTCOME>False</OUTCOME>
	<OUTCOME>True</OUTCOME>
	<PROPERTY>position = (438,192)</PROPERTY>
</VARIABLE>
<VARIABLE TYPE="nature">
	<NAME>wifi</NAME>
	<OUTCOME>False</OUTCOME>
	<OUTCOME>True</OUTCOME>
	<PROPERTY>position = (584,192)</PROPERTY>
</VARIABLE>
<VARIABLE TYPE="nature">
	<NAME>air_conditioning</NAME>
	<OUTCOME>False</OUTCOME>
	<OUTCOME>True</OUTCOME>
	<PROPERTY>position = (1022,576)</PROPERTY>
</VARIABLE>
<VARIABLE TYPE="nature">
	<NAME>oven</NAME>
	<OUTCOME>False</OUTCOME>
	<OUTCOME>True</OUTCOME>
	<PROPERTY>position = (584,480)</PROPERTY>
</VARIABLE>
<VARIABLE TYPE="nature">
	<NAME>stove</NAME>
	<OUTCOME>False</OUTCOME>
	<OUTCOME>True</OUTCOME>
	<PROPERTY>position = (730,480)</PROPERTY>
</VARIABLE>
<VARIABLE TYPE="nature">
	<NAME>coffee_maker</NAME>
	<OUTCOME>False</OUTCOME>
	<OUTCOME>True</OUTCOME>
	<PROPERTY>position = (876,480)</PROPERTY>
</VARIABLE>
<VARIABLE TYPE="nature">
	<NAME>dishwasher</NAME>
	<OUTCOME>False</OUTCOME>
	<OUTCOME>True</OUTCOME>
	<PROPERTY>position = (1022,480)</PROPERTY>
</VARIABLE>
<VARIABLE TYPE="nature">
	<NAME>refrigerator</NAME>
	<OUTCOME>False</OUTCOME>
	<OUTCOME>True</OUTCOME>
	<PROPERTY>position = (438,384)</PROPERTY>
</VARIABLE>
<VARIABLE TYPE="nature">
	<NAME>microwave</NAME>
	<OUTCOME>False</OUTCOME>
	<OUTCOME>True</OUTCOME>
	<PROPERTY>position = (1168,480)</PROPERTY>
</VARIABLE>
<DEFINITION>
<FOR>class_of_price</FOR>
	<GIVEN>number_of_reviews</GIVEN>
<TABLE>
0.7678307919331038 0.08050500081980652 0.1057550418101328 0.03885882931628136 0.007050336120675521 
0.7569551117938215 0.047619047619047616 0.15275644307902372 0.04010923365762076 0.002560163850486431 
0.7450812660393499 0.12917023096663816 0.07784431137724551 0.036783575705731396 0.011120615911035072 
0.6650101233204491 0.20743603902079882 0.07380820909258237 0.034051168783360945 0.01969445978280876 
</TABLE>
</DEFINITION>
<DEFINITION>
<FOR>host_response_rate</FOR>
	<GIVEN>review_scores_rating</GIVEN>
<TABLE>
0.7190295473027921 0.1728110599078341 0.015044727568446733 0.09311466522092708 
0.8248743718592965 0.12035175879396985 0.02035175879396985 0.03442211055276382 
0.8632764920828259 0.11175395858708892 0.010657734470158343 0.014311814859926919 
0.7779764946346449 0.13617782319877364 0.043178334184977005 0.04266734798160449 
</TABLE>
</DEFINITION>
<DEFINITION>
<FOR>host_is_superhost</FOR>
	<GIVEN>review_scores_rating</GIVEN>
<TABLE>
0.897912147505423 0.10208785249457701 
0.7926093514328808 0.20739064856711917 
0.4744058500914077 0.5255941499085923 
0.9455521472392638 0.054447852760736194 
</TABLE>
</DEFINITION>
<DEFINITION>
<FOR>is_center</FOR>
	<GIVEN>neighbourhood_cleansed</GIVEN>
<TABLE>
0.9989816700610998 0.0010183299389002036 
0.00510204081632653 0.9948979591836735 
0.999251497005988 7.485029940119761E-4 
0.9985294117647059 0.0014705882352941176 
0.999124343257443 8.756567425569177E-4 
0.9988179669030733 0.001182033096926714 
0.9988095238095238 0.0011904761904761906 
0.9974226804123711 0.002577319587628866 
0.00847457627118644 0.9915254237288136 
0.0033783783783783786 0.9966216216216216 
0.9974358974358974 0.002564102564102564 
0.9986449864498645 0.0013550135501355014 
0.002232142857142857 0.9977678571428571 
0.003125 0.996875 
0.003048780487804878 0.9969512195121951 
0.0036231884057971015 0.9963768115942029 
0.9979166666666667 0.0020833333333333333 
0.9982456140350877 0.0017543859649122807 
0.9952830188679245 0.0047169811320754715 
0.9920634920634921 0.007936507936507936 
0.0037593984962406013 0.9962406015037594 
0.02631578947368421 0.9736842105263158 
0.9989316239316239 0.0010683760683760685 
0.0058823529411764705 0.9941176470588236 
0.0021008403361344537 0.9978991596638656 
0.9985994397759104 0.0014005602240896359 
0.004310344827586207 0.9956896551724138 
0.0035460992907801418 0.9964539007092199 
0.9962406015037594 0.0037593984962406013 
0.0038461538461538464 0.9961538461538462 
0.003703703703703704 0.9962962962962963 
0.02 0.98 
0.0037313432835820895 0.996268656716418 
0.9939024390243902 0.006097560975609756 
0.007692307692307693 0.9923076923076923 
0.9901960784313726 0.00980392156862745 
0.9977064220183486 0.0022935779816513763 
0.007042253521126761 0.9929577464788732 
0.0030864197530864196 0.9969135802469136 
0.029411764705882353 0.9705882352941176 
0.9957983193277311 0.004201680672268907 
0.014705882352941176 0.9852941176470589 
0.017857142857142856 0.9821428571428571 
0.9583333333333334 0.041666666666666664 
0.03333333333333333 0.9666666666666667 
0.023809523809523808 0.9761904761904762 
0.004807692307692308 0.9951923076923077 
0.00980392156862745 0.9901960784313726 
0.9930555555555556 0.006944444444444444 
0.03125 0.96875 
0.99 0.01 
0.0045871559633027525 0.9954128440366973 
0.018518518518518517 0.9814814814814815 
0.007692307692307693 0.9923076923076923 
0.00980392156862745 0.9901960784313726 
0.011111111111111112 0.9888888888888889 
0.013888888888888888 0.9861111111111112 
0.027777777777777776 0.9722222222222222 
0.009259259259259259 0.9907407407407407 
0.011363636363636364 0.9886363636363636 
0.0078125 0.9921875 
0.025 0.975 
0.03333333333333333 0.9666666666666667 
0.045454545454545456 0.9545454545454546 
0.9666666666666667 0.03333333333333333 
0.02 0.98 
0.08333333333333333 0.9166666666666666 
0.9 0.1 
0.8333333333333334 0.16666666666666666 
0.16666666666666666 0.8333333333333334 
0.02631578947368421 0.9736842105263158 
0.16666666666666666 0.8333333333333334 
0.1 0.9 
0.0625 0.9375 
0.03333333333333333 0.9666666666666667 
0.125 0.875 
0.16666666666666666 0.8333333333333334 
0.1 0.9 
0.16666666666666666 0.8333333333333334 
0.16666666666666666 0.8333333333333334 
0.9285714285714286 0.07142857142857142 
0.16666666666666666 0.8333333333333334 
</TABLE>
</DEFINITION>
<DEFINITION>
<FOR>neighbourhood_cleansed</FOR>
	<GIVEN>class_of_price</GIVEN>
<TABLE>
0.057383040935672515 0.009868421052631578 0.07931286549707603 0.036915204678362575 0.06425438596491229 0.04773391812865497 0.04773391812865497 0.021710526315789475 0.005190058479532164 0.01425438596491228 0.021710526315789475 0.04159356725146199 0.022880116959064327 0.015277777777777777 0.017909356725146198 0.014546783625730994 0.026242690058479533 0.03077485380116959 0.011038011695906434 0.006944444444444444 0.014546783625730994 0.0015350877192982456 0.052850877192982454 0.008406432748538011 0.027412280701754384 0.03603801169590643 0.01118421052631579 0.016008771929824563 0.014400584795321638 0.01337719298245614 0.013084795321637427 0.002266081871345029 0.012353801169590643 0.008260233918128655 0.006505847953216374 0.005190058479532164 0.0266812865497076 0.006652046783625731 0.014839181286549707 0.0015350877192982456 0.011330409356725146 0.0031432748538011697 0.0028508771929824563 0.001388888888888889 9.502923976608187E-4 0.0015350877192982456 0.010599415204678362 0.0038742690058479533 0.007383040935672515 0.0012426900584795323 0.00445906432748538 0.010599415204678362 0.003289473684210526 0.0062134502923976605 0.00402046783625731 0.004166666666666667 0.004605263157894736 0.002266081871345029 0.0043128654970760235 0.00402046783625731 0.005482456140350877 8.04093567251462E-4 0.0015350877192982456 9.502923976608187E-4 0.001827485380116959 0.002266081871345029 3.654970760233918E-4 3.654970760233918E-4 7.309941520467836E-5 2.192982456140351E-4 0.002266081871345029 3.654970760233918E-4 2.192982456140351E-4 6.578947368421052E-4 0.001388888888888889 3.654970760233918E-4 3.654970760233918E-4 3.654970760233918E-4 2.192982456140351E-4 2.192982456140351E-4 9.502923976608187E-4 7.309941520467836E-5 
0.057855126999059266 0.003292568203198495 0.0625587958607714 0.039040451552210725 0.10206961429915334 0.07478833490122296 0.04750705550329257 0.02116650987770461 0.0061147695202257765 0.0051740357478833494 0.03057384760112888 0.04374412041392286 0.02116650987770461 0.02116650987770461 0.019285042333019756 0.010818438381937912 0.032455315145813735 0.0380997177798683 0.0070555032925682035 0.00799623706491063 0.0070555032925682035 0.0023518344308560675 0.05315145813734713 0.0042333019755409216 0.03527751646284102 0.022107243650047036 0.0042333019755409216 0.00799623706491063 0.022107243650047036 0.008936970837253057 0.010818438381937912 0.0014111006585136407 0.011759172154280339 0.019285042333019756 0.0014111006585136407 0.00799623706491063 0.016462841015992474 0.0014111006585136407 0.008936970837253057 4.7036688617121356E-4 0.012699905926622766 4.7036688617121356E-4 4.7036688617121356E-4 0.0014111006585136407 0.0023518344308560675 4.7036688617121356E-4 0.009877704609595485 0.0023518344308560675 0.0061147695202257765 0.0023518344308560675 0.008936970837253057 0.0070555032925682035 0.0014111006585136407 0.0051740357478833494 0.008936970837253057 0.0042333019755409216 0.0014111006585136407 4.7036688617121356E-4 0.0023518344308560675 0.0042333019755409216 0.0023518344308560675 0.0014111006585136407 4.7036688617121356E-4 4.7036688617121356E-4 0.0014111006585136407 0.0023518344308560675 4.7036688617121356E-4 4.7036688617121356E-4 4.7036688617121356E-4 4.7036688617121356E-4 4.7036688617121356E-4 4.7036688617121356E-4 4.7036688617121356E-4 4.7036688617121356E-4 0.0014111006585136407 4.7036688617121356E-4 4.7036688617121356E-4 0.0014111006585136407 4.7036688617121356E-4 4.7036688617121356E-4 4.7036688617121356E-4 4.7036688617121356E-4 
0.024170616113744076 0.017535545023696683 0.045023696682464455 0.030805687203791468 0.006161137440758294 0.0042654028436018955 0.03175355450236967 0.016587677725118485 0.008056872037914692 0.036492890995260666 0.00995260663507109 0.025118483412322274 0.030805687203791468 0.024170616113744076 0.014691943127962086 0.02227488151658768 0.01848341232227488 0.025118483412322274 0.014691943127962086 0.006161137440758294 0.023222748815165877 0.002369668246445498 0.035545023696682464 0.014691943127962086 0.006161137440758294 0.06018957345971564 0.024170616113744076 0.011848341232227487 0.005213270142180095 0.02227488151658768 0.01848341232227488 0.0033175355450236967 0.023222748815165877 0.0033175355450236967 0.010900473933649289 0.006161137440758294 0.014691943127962086 0.016587677725118485 0.03175355450236967 0.005213270142180095 0.02037914691943128 0.011848341232227487 0.0042654028436018955 0.0014218009478672985 0.006161137440758294 0.006161137440758294 0.014691943127962086 0.014691943127962086 0.010900473933649289 0.002369668246445498 0.006161137440758294 0.015639810426540283 0.0033175355450236967 0.012796208530805687 0.010900473933649289 0.00995260663507109 0.0014218009478672985 0.002369668246445498 0.017535545023696683 0.008056872037914692 0.02132701421800948 0.006161137440758294 0.0033175355450236967 0.0042654028436018955 0.0014218009478672985 0.006161137440758294 0.0033175355450236967 0.002369668246445498 0.002369668246445498 0.0014218009478672985 0.002369668246445498 4.7393364928909954E-4 0.0014218009478672985 0.002369668246445498 0.0033175355450236967 0.0014218009478672985 4.7393364928909954E-4 4.7393364928909954E-4 4.7393364928909954E-4 4.7393364928909954E-4 4.7393364928909954E-4 0.0014218009478672985 
0.02442159383033419 0.021850899742930592 0.02442159383033419 0.02956298200514139 0.008997429305912597 0.006426735218508998 0.02442159383033419 0.014138817480719794 0.02442159383033419 0.019280205655526992 0.0012853470437017994 0.02442159383033419 0.032133676092544985 0.019280205655526992 0.016709511568123392 0.008997429305912597 0.014138817480719794 0.019280205655526992 0.019280205655526992 0.0012853470437017994 0.006426735218508998 0.011568123393316195 0.016709511568123392 0.021850899742930592 0.006426735218508998 0.06298200514138817 0.02699228791773779 0.019280205655526992 0.008997429305912597 0.014138817480719794 0.037275064267352186 0.014138817480719794 0.02699228791773779 0.0012853470437017994 0.021850899742930592 0.0012853470437017994 0.008997429305912597 0.016709511568123392 0.04498714652956298 0.0012853470437017994 0.019280205655526992 0.0012853470437017994 0.011568123393316195 0.0012853470437017994 0.0012853470437017994 0.008997429305912597 0.014138817480719794 0.019280205655526992 0.011568123393316195 0.008997429305912597 0.011568123393316195 0.032133676092544985 0.0012853470437017994 0.011568123393316195 0.006426735218508998 0.006426735218508998 0.006426735218508998 0.0012853470437017994 0.011568123393316195 0.008997429305912597 0.006426735218508998 0.019280205655526992 0.0038560411311053984 0.0012853470437017994 0.0012853470437017994 0.0038560411311053984 0.0012853470437017994 0.0012853470437017994 0.0012853470437017994 0.0012853470437017994 0.0038560411311053984 0.0012853470437017994 0.006426735218508998 0.0038560411311053984 0.0038560411311053984 0.0012853470437017994 0.0012853470437017994 0.0038560411311053984 0.0038560411311053984 0.0038560411311053984 0.0012853470437017994 0.0038560411311053984 
0.02734375 0.01171875 0.02734375 0.02734375 0.11328125 0.08984375 0.01171875 0.01171875 0.00390625 0.00390625 0.03515625 0.02734375 0.01171875 0.01171875 0.00390625 0.01171875 0.01953125 0.01171875 0.01171875 0.01171875 0.00390625 0.00390625 0.05859375 0.00390625 0.04296875 0.00390625 0.00390625 0.03515625 0.02734375 0.01171875 0.01171875 0.00390625 0.02734375 0.01953125 0.00390625 0.01171875 0.00390625 0.01171875 0.01171875 0.01171875 0.00390625 0.00390625 0.00390625 0.00390625 0.00390625 0.01171875 0.01171875 0.00390625 0.00390625 0.00390625 0.00390625 0.01171875 0.00390625 0.00390625 0.01171875 0.00390625 0.00390625 0.00390625 0.00390625 0.01171875 0.00390625 0.00390625 0.00390625 0.00390625 0.00390625 0.00390625 0.00390625 0.00390625 0.00390625 0.00390625 0.00390625 0.00390625 0.00390625 0.00390625 0.00390625 0.00390625 0.00390625 0.00390625 0.00390625 0.00390625 0.00390625 0.00390625 
</TABLE>
</DEFINITION>
<DEFINITION>
<FOR>number_of_reviews</FOR>
	<GIVEN>dishes_and_silverware</GIVEN>
<TABLE>
0.351954806312769 0.4305057388809182 0.05568507890961263 0.16185437589670015 
0.2935370470524608 0.14264467279610601 0.07368848025959979 0.4901297998918334 
</TABLE>
</DEFINITION>
<DEFINITION>
<FOR>review_scores_rating</FOR>
	<GIVEN>number_of_reviews</GIVEN>
<TABLE>
0.5245982289275172 0.287143325680551 0.15398491308625778 0.03427353230567399 
0.5143393649709799 0.06230795493342438 0.399965858654831 0.023386821440764767 
0.4443493150684932 0.5539383561643836 8.561643835616438E-4 8.561643835616438E-4 
0.11910898379970544 0.22404270986745214 1.840942562592047E-4 0.6566642120765832 
</TABLE>
</DEFINITION>
<DEFINITION>
<FOR>tv</FOR>
	<GIVEN>heating</GIVEN>
<TABLE>
0.7227979274611399 0.2772020725388601 
0.5085178875638842 0.49148211243611584 
</TABLE>
</DEFINITION>
<DEFINITION>
<FOR>dishes_and_silverware</FOR>
	<GIVEN>hot_water</GIVEN>
<TABLE>
0.818734793187348 0.18126520681265207 
0.16977792082394594 0.8302220791760541 
</TABLE>
</DEFINITION>
<DEFINITION>
<FOR>essentials</FOR>
	<GIVEN>hangers</GIVEN>
<TABLE>
0.9751300173356447 0.024869982664355247 
0.7323745064861816 0.26762549351381837 
</TABLE>
</DEFINITION>
<DEFINITION>
<FOR>kitchen</FOR>
	<GIVEN>stove</GIVEN>
<TABLE>
0.9206763285024154 0.07932367149758454 
0.9937759336099585 0.006224066390041493 
</TABLE>
</DEFINITION>
<DEFINITION>
<FOR>iron</FOR>
	<GIVEN>hair_dryer</GIVEN>
<TABLE>
0.8584511370620774 0.14154886293792257 
0.20008795074758134 0.7999120492524187 
</TABLE>
</DEFINITION>
<DEFINITION>
<FOR>hair_dryer</FOR>
<TABLE>
0.8774134397583864 0.12258656024161363 
</TABLE>
</DEFINITION>
<DEFINITION>
<FOR>cooking_basics</FOR>
	<GIVEN>dishes_and_silverware</GIVEN>
<TABLE>
0.8641255605381166 0.1358744394618834 
0.10914254801190154 0.8908574519880984 
</TABLE>
</DEFINITION>
<DEFINITION>
<FOR>heating</FOR>
	<GIVEN>washer</GIVEN>
<TABLE>
0.9617779544250132 0.03822204557498675 
0.8268561484918794 0.17314385150812064 
</TABLE>
</DEFINITION>
<DEFINITION>
<FOR>bed_linens</FOR>
	<GIVEN>refrigerator</GIVEN>
<TABLE>
0.1211139896373057 0.8788860103626943 
0.7436252771618626 0.25637472283813745 
</TABLE>
</DEFINITION>
<DEFINITION>
<FOR>hangers</FOR>
	<GIVEN>hair_dryer</GIVEN>
<TABLE>
0.8707437000614628 0.12925629993853718 
0.3654353562005277 0.6345646437994723 
</TABLE>
</DEFINITION>
<DEFINITION>
<FOR>dedicated_workspace</FOR>
	<GIVEN>hangers</GIVEN>
<TABLE>
0.7607014268569142 0.23929857314308575 
0.3048505358150028 0.6951494641849972 
</TABLE>
</DEFINITION>
<DEFINITION>
<FOR>hot_water</FOR>
	<GIVEN>hangers</GIVEN>
<TABLE>
0.7476330177356981 0.25236698226430193 
0.3150028200789622 0.6849971799210378 
</TABLE>
</DEFINITION>
<DEFINITION>
<FOR>long_term_stays_allowed</FOR>
	<GIVEN>host_response_rate</GIVEN>
<TABLE>
0.8056822895064288 0.19431771049357113 
0.8917797888386124 0.10822021116138764 
0.7131979695431472 0.2868020304568528 
0.9893822393822393 0.010617760617760617 
</TABLE>
</DEFINITION>
<DEFINITION>
<FOR>washer</FOR>
	<GIVEN>kitchen</GIVEN>
<TABLE>
0.8345971027614305 0.1654028972385695 
0.39793577981651373 0.6020642201834863 
</TABLE>
</DEFINITION>
<DEFINITION>
<FOR>elevator</FOR>
	<GIVEN>kitchen</GIVEN>
<TABLE>
0.46904708012675417 0.5309529198732458 
0.6364678899082569 0.36353211009174313 
</TABLE>
</DEFINITION>
<DEFINITION>
<FOR>shampoo</FOR>
	<GIVEN>hangers</GIVEN>
<TABLE>
0.2352980397386318 0.7647019602613682 
0.5896785109983079 0.4103214890016921 
</TABLE>
</DEFINITION>
<DEFINITION>
<FOR>wifi</FOR>
	<GIVEN>iron</GIVEN>
<TABLE>
0.06732769380113715 0.9326723061988629 
0.2311984473556526 0.7688015526443474 
</TABLE>
</DEFINITION>
<DEFINITION>
<FOR>air_conditioning</FOR>
	<GIVEN>dishwasher</GIVEN>
<TABLE>
0.34095063985374774 0.6590493601462523 
0.16973886328725038 0.8302611367127496 
</TABLE>
</DEFINITION>
<DEFINITION>
<FOR>oven</FOR>
	<GIVEN>refrigerator</GIVEN>
<TABLE>
0.980699481865285 0.019300518134715026 
0.3086659275683666 0.6913340724316334 
</TABLE>
</DEFINITION>
<DEFINITION>
<FOR>stove</FOR>
	<GIVEN>refrigerator</GIVEN>
<TABLE>
0.9822538860103627 0.017746113989637307 
0.25563562453806354 0.7443643754619365 
</TABLE>
</DEFINITION>
<DEFINITION>
<FOR>coffee_maker</FOR>
	<GIVEN>refrigerator</GIVEN>
<TABLE>
0.9091968911917099 0.09080310880829015 
0.3020140428677014 0.6979859571322986 
</TABLE>
</DEFINITION>
<DEFINITION>
<FOR>dishwasher</FOR>
	<GIVEN>refrigerator</GIVEN>
<TABLE>
0.9527202072538861 0.04727979274611399 
0.432280118255728 0.567719881744272 
</TABLE>
</DEFINITION>
<DEFINITION>
<FOR>refrigerator</FOR>
	<GIVEN>dishes_and_silverware</GIVEN>
<TABLE>
0.09121076233183857 0.9087892376681614 
0.9065458479848526 0.09345415201514742 
</TABLE>
</DEFINITION>
<DEFINITION>
<FOR>microwave</FOR>
	<GIVEN>refrigerator</GIVEN>
<TABLE>
0.9612694300518134 0.03873056994818653 
0.37444567627494457 0.6255543237250555 
</TABLE>
</DEFINITION>
</NETWORK>
</BIF>
