<?xml version="1.0"?>
<!-- DTD for the XMLBIF 0.3 format -->
<!DOCTYPE BIF [
	<!ELEMENT BIF ( NETWORK )*>
	      <!ATTLIST BIF VERSION CDATA #REQUIRED>
	<!ELEMENT NETWORK ( NAME, ( PROPERTY | VARIABLE | DEFINITION )* )>
	<!ELEMENT NAME (#PCDATA)>
	<!ELEMENT VARIABLE ( NAME, ( OUTCOME |  PROPERTY )* ) >
	      <!ATTLIST VARIABLE TYPE (nature|decision|utility) "nature">
	<!ELEMENT OUTCOME (#PCDATA)>
	<!ELEMENT DEFINITION ( FOR | GIVEN | TABLE | PROPERTY )* >
	<!ELEMENT FOR (#PCDATA)>
	<!ELEMENT GIVEN (#PCDATA)>
	<!ELEMENT TABLE (#PCDATA)>
	<!ELEMENT PROPERTY (#PCDATA)>
]>


<BIF VERSION="0.3">
<NETWORK>
<NAME>bn_dataset-weka.filters.unsupervised.attribute.ReplaceMissingValues</NAME>
<VARIABLE TYPE="nature">
	<NAME>class_of_price</NAME>
	<OUTCOME>medium</OUTCOME>
	<OUTCOME>expensive</OUTCOME>
	<OUTCOME>affordable</OUTCOME>
	<OUTCOME>economy</OUTCOME>
	<OUTCOME>top_level</OUTCOME>
	<PROPERTY>position = (1898,1632)</PROPERTY>
</VARIABLE>
<VARIABLE TYPE="nature">
	<NAME>host_response_rate</NAME>
	<OUTCOME>always_responds</OUTCOME>
	<OUTCOME>usually_responds</OUTCOME>
	<OUTCOME>never_responds</OUTCOME>
	<OUTCOME>often_responds</OUTCOME>
	<PROPERTY>position = (2482,1728)</PROPERTY>
</VARIABLE>
<VARIABLE TYPE="nature">
	<NAME>host_is_superhost</NAME>
	<OUTCOME>False</OUTCOME>
	<OUTCOME>True</OUTCOME>
	<PROPERTY>position = (2190,1920)</PROPERTY>
</VARIABLE>
<VARIABLE TYPE="nature">
	<NAME>is_center</NAME>
	<OUTCOME>True</OUTCOME>
	<OUTCOME>False</OUTCOME>
	<PROPERTY>position = (1314,96)</PROPERTY>
</VARIABLE>
<VARIABLE TYPE="nature">
	<NAME>neighbourhood_cleansed</NAME>
	<OUTCOME>NAVIGLI</OUTCOME>
	<OUTCOME>&apos;VIALE MONZA&apos;</OUTCOME>
	<OUTCOME>&apos;BUENOS AIRES&apos;</OUTCOME>
	<OUTCOME>CENTRALE</OUTCOME>
	<OUTCOME>DUOMO</OUTCOME>
	<OUTCOME>BRERA</OUTCOME>
	<OUTCOME>TICINESE</OUTCOME>
	<OUTCOME>WASHINGTON</OUTCOME>
	<OUTCOME>LAMBRATE</OUTCOME>
	<OUTCOME>VILLAPIZZONE</OUTCOME>
	<OUTCOME>GUASTALLA</OUTCOME>
	<OUTCOME>ISOLA</OUTCOME>
	<OUTCOME>&apos;CITTA STUDI&apos;</OUTCOME>
	<OUTCOME>GIAMBELLINO</OUTCOME>
	<OUTCOME>&apos;DE ANGELI ROSA&apos;</OUTCOME>
	<OUTCOME>&apos;BANDE NERE&apos;</OUTCOME>
	<OUTCOME>TORTONA</OUTCOME>
	<OUTCOME>&apos;XXII MARZO&apos;</OUTCOME>
	<OUTCOME>GHISOLFA</OUTCOME>
	<OUTCOME>PORTELLO</OUTCOME>
	<OUTCOME>UMBRIA</OUTCOME>
	<OUTCOME>&apos;PARCO FORLANINI&apos;</OUTCOME>
	<OUTCOME>SARPI</OUTCOME>
	<OUTCOME>BOVISA</OUTCOME>
	<OUTCOME>&apos;MAGENTA VITTORE&apos;</OUTCOME>
	<OUTCOME>LORETO</OUTCOME>
	<OUTCOME>STADERA</OUTCOME>
	<OUTCOME>VIGENTINA</OUTCOME>
	<OUTCOME>&apos;GARIBALDI REPUBBLICA&apos;</OUTCOME>
	<OUTCOME>LODI</OUTCOME>
	<OUTCOME>TIBALDI</OUTCOME>
	<OUTCOME>&apos;FORZE ARMATE&apos;</OUTCOME>
	<OUTCOME>&apos;S. CRISTOFORO&apos;</OUTCOME>
	<OUTCOME>PAGANO</OUTCOME>
	<OUTCOME>&apos;PARCO LAMBRO&apos;</OUTCOME>
	<OUTCOME>FARINI</OUTCOME>
	<OUTCOME>&apos;PORTA ROMANA&apos;</OUTCOME>
	<OUTCOME>GRECO</OUTCOME>
	<OUTCOME>PADOVA</OUTCOME>
	<OUTCOME>ORTOMERCATO</OUTCOME>
	<OUTCOME>MACIACHINI</OUTCOME>
	<OUTCOME>MAGGIORE</OUTCOME>
	<OUTCOME>LORENTEGGIO</OUTCOME>
	<OUTCOME>&apos;TRE TORRI&apos;</OUTCOME>
	<OUTCOME>BARONA</OUTCOME>
	<OUTCOME>ADRIANO</OUTCOME>
	<OUTCOME>CORSICA</OUTCOME>
	<OUTCOME>&apos;RONCHETTO SUL NAVIGLIO&apos;</OUTCOME>
	<OUTCOME>&apos;SCALO ROMANA&apos;</OUTCOME>
	<OUTCOME>&apos;QUARTO CAGNINO&apos;</OUTCOME>
	<OUTCOME>&apos;EX OM&apos;</OUTCOME>
	<OUTCOME>DERGANO</OUTCOME>
	<OUTCOME>ROGOREDO</OUTCOME>
	<OUTCOME>SELINUNTE</OUTCOME>
	<OUTCOME>&apos;S. SIRO&apos;</OUTCOME>
	<OUTCOME>GALLARATESE</OUTCOME>
	<OUTCOME>MECENATE</OUTCOME>
	<OUTCOME>&apos;QT 8&apos;</OUTCOME>
	<OUTCOME>&apos;NIGUARDA GRANDA&apos;</OUTCOME>
	<OUTCOME>RIPAMONTI</OUTCOME>
	<OUTCOME>AFFORI</OUTCOME>
	<OUTCOME>BAGGIO</OUTCOME>
	<OUTCOME>&apos;PARCO MONLUE LAMBRO&apos;</OUTCOME>
	<OUTCOME>GRATOSOGLIO</OUTCOME>
	<OUTCOME>&apos;PARCO SEMPIONE&apos;</OUTCOME>
	<OUTCOME>&apos;QUARTO OGGIARO&apos;</OUTCOME>
	<OUTCOME>COMASINA</OUTCOME>
	<OUTCOME>BOVISASCA</OUTCOME>
	<OUTCOME>&apos;PARCO AGRICOLO SUD&apos;</OUTCOME>
	<OUTCOME>&apos;PARCO NORD&apos;</OUTCOME>
	<OUTCOME>BICOCCA</OUTCOME>
	<OUTCOME>CHIARAVALLE</OUTCOME>
	<OUTCOME>&apos;QUINTO ROMANO&apos;</OUTCOME>
	<OUTCOME>&apos;TRIULZO SUPERIORE&apos;</OUTCOME>
	<OUTCOME>BRUZZANO</OUTCOME>
	<OUTCOME>FIGINO</OUTCOME>
	<OUTCOME>&apos;PARCO DEI NAVIGLI&apos;</OUTCOME>
	<OUTCOME>CANTALUPA</OUTCOME>
	<OUTCOME>TRENNO</OUTCOME>
	<OUTCOME>&apos;PARCO DELLE ABBAZIE&apos;</OUTCOME>
	<OUTCOME>&apos;GIARDINI PORTA VENEZIA&apos;</OUTCOME>
	<OUTCOME>&apos;PARCO BOSCO IN CITT&apos;</OUTCOME>
	<PROPERTY>position = (1314,0)</PROPERTY>
</VARIABLE>
<VARIABLE TYPE="nature">
	<NAME>number_of_reviews</NAME>
	<OUTCOME>some_reviews</OUTCOME>
	<OUTCOME>lot_of_reviews</OUTCOME>
	<OUTCOME>few_reviews</OUTCOME>
	<OUTCOME>no_reviews</OUTCOME>
	<PROPERTY>position = (2336,1536)</PROPERTY>
</VARIABLE>
<VARIABLE TYPE="nature">
	<NAME>review_scores_rating</NAME>
	<OUTCOME>low_rating</OUTCOME>
	<OUTCOME>top_rating</OUTCOME>
	<OUTCOME>nice_rating</OUTCOME>
	<OUTCOME>good_rating</OUTCOME>
	<PROPERTY>position = (2190,1632)</PROPERTY>
</VARIABLE>
<VARIABLE TYPE="nature">
	<NAME>tv</NAME>
	<OUTCOME>True</OUTCOME>
	<OUTCOME>False</OUTCOME>
	<PROPERTY>position = (876,1248)</PROPERTY>
</VARIABLE>
<VARIABLE TYPE="nature">
	<NAME>dishes_and_silverware</NAME>
	<OUTCOME>True</OUTCOME>
	<OUTCOME>False</OUTCOME>
	<PROPERTY>position = (2190,576)</PROPERTY>
</VARIABLE>
<VARIABLE TYPE="nature">
	<NAME>essentials</NAME>
	<OUTCOME>True</OUTCOME>
	<OUTCOME>False</OUTCOME>
	<PROPERTY>position = (1168,672)</PROPERTY>
</VARIABLE>
<VARIABLE TYPE="nature">
	<NAME>kitchen</NAME>
	<OUTCOME>True</OUTCOME>
	<OUTCOME>False</OUTCOME>
	<PROPERTY>position = (1752,960)</PROPERTY>
</VARIABLE>
<VARIABLE TYPE="nature">
	<NAME>iron</NAME>
	<OUTCOME>True</OUTCOME>
	<OUTCOME>False</OUTCOME>
	<PROPERTY>position = (1606,288)</PROPERTY>
</VARIABLE>
<VARIABLE TYPE="nature">
	<NAME>hair_dryer</NAME>
	<OUTCOME>True</OUTCOME>
	<OUTCOME>False</OUTCOME>
	<PROPERTY>position = (1460,192)</PROPERTY>
</VARIABLE>
<VARIABLE TYPE="nature">
	<NAME>cooking_basics</NAME>
	<OUTCOME>True</OUTCOME>
	<OUTCOME>False</OUTCOME>
	<PROPERTY>position = (2920,1824)</PROPERTY>
</VARIABLE>
<VARIABLE TYPE="nature">
	<NAME>heating</NAME>
	<OUTCOME>True</OUTCOME>
	<OUTCOME>False</OUTCOME>
	<PROPERTY>position = (1168,1152)</PROPERTY>
</VARIABLE>
<VARIABLE TYPE="nature">
	<NAME>bed_linens</NAME>
	<OUTCOME>True</OUTCOME>
	<OUTCOME>False</OUTCOME>
	<PROPERTY>position = (1314,768)</PROPERTY>
</VARIABLE>
<VARIABLE TYPE="nature">
	<NAME>hangers</NAME>
	<OUTCOME>True</OUTCOME>
	<OUTCOME>False</OUTCOME>
	<PROPERTY>position = (2190,384)</PROPERTY>
</VARIABLE>
<VARIABLE TYPE="nature">
	<NAME>dedicated_workspace</NAME>
	<OUTCOME>True</OUTCOME>
	<OUTCOME>False</OUTCOME>
	<PROPERTY>position = (2044,1248)</PROPERTY>
</VARIABLE>
<VARIABLE TYPE="nature">
	<NAME>hot_water</NAME>
	<OUTCOME>True</OUTCOME>
	<OUTCOME>False</OUTCOME>
	<PROPERTY>position = (1752,480)</PROPERTY>
</VARIABLE>
<VARIABLE TYPE="nature">
	<NAME>long_term_stays_allowed</NAME>
	<OUTCOME>True</OUTCOME>
	<OUTCOME>False</OUTCOME>
	<PROPERTY>position = (2336,1920)</PROPERTY>
</VARIABLE>
<VARIABLE TYPE="nature">
	<NAME>washer</NAME>
	<OUTCOME>True</OUTCOME>
	<OUTCOME>False</OUTCOME>
	<PROPERTY>position = (1168,1056)</PROPERTY>
</VARIABLE>
<VARIABLE TYPE="nature">
	<NAME>elevator</NAME>
	<OUTCOME>False</OUTCOME>
	<OUTCOME>True</OUTCOME>
	<PROPERTY>position = (1022,1248)</PROPERTY>
</VARIABLE>
<VARIABLE TYPE="nature">
	<NAME>shampoo</NAME>
	<OUTCOME>False</OUTCOME>
	<OUTCOME>True</OUTCOME>
	<PROPERTY>position = (2044,1440)</PROPERTY>
</VARIABLE>
<VARIABLE TYPE="nature">
	<NAME>wifi</NAME>
	<OUTCOME>False</OUTCOME>
	<OUTCOME>True</OUTCOME>
	<PROPERTY>position = (730,1632)</PROPERTY>
</VARIABLE>
<VARIABLE TYPE="nature">
	<NAME>air_conditioning</NAME>
	<OUTCOME>False</OUTCOME>
	<OUTCOME>True</OUTCOME>
	<PROPERTY>position = (1168,1728)</PROPERTY>
</VARIABLE>
<VARIABLE TYPE="nature">
	<NAME>oven</NAME>
	<OUTCOME>False</OUTCOME>
	<OUTCOME>True</OUTCOME>
	<PROPERTY>position = (1898,1152)</PROPERTY>
</VARIABLE>
<VARIABLE TYPE="nature">
	<NAME>stove</NAME>
	<OUTCOME>False</OUTCOME>
	<OUTCOME>True</OUTCOME>
	<PROPERTY>position = (1898,864)</PROPERTY>
</VARIABLE>
<VARIABLE TYPE="nature">
	<NAME>coffee_maker</NAME>
	<OUTCOME>False</OUTCOME>
	<OUTCOME>True</OUTCOME>
	<PROPERTY>position = (2482,1344)</PROPERTY>
</VARIABLE>
<VARIABLE TYPE="nature">
	<NAME>dishwasher</NAME>
	<OUTCOME>False</OUTCOME>
	<OUTCOME>True</OUTCOME>
	<PROPERTY>position = (1898,1248)</PROPERTY>
</VARIABLE>
<VARIABLE TYPE="nature">
	<NAME>refrigerator</NAME>
	<OUTCOME>False</OUTCOME>
	<OUTCOME>True</OUTCOME>
	<PROPERTY>position = (2044,672)</PROPERTY>
</VARIABLE>
<VARIABLE TYPE="nature">
	<NAME>microwave</NAME>
	<OUTCOME>False</OUTCOME>
	<OUTCOME>True</OUTCOME>
	<PROPERTY>position = (2628,1344)</PROPERTY>
</VARIABLE>
<DEFINITION>
<FOR>class_of_price</FOR>
	<GIVEN>number_of_reviews</GIVEN>
	<GIVEN>is_center</GIVEN>
	<GIVEN>dishwasher</GIVEN>
<TABLE>
0.7878395860284605 0.10047434238896076 0.07891332470892626 0.02457956015523933 0.008193186718413108 
0.829219479653102 0.10873915943962642 0.04469646430953969 0.01134089392928619 0.00600400266844563 
0.655831739961759 0.032504780114722756 0.21351179094964945 0.08859145952836202 0.009560229445506692 
0.8074277854195323 0.06464924346629987 0.08665749656121045 0.037138927097661624 0.0041265474552957355 
0.793939393939394 0.02843822843822844 0.1393939393939394 0.0331002331002331 0.005128205128205128 
0.83342175066313 0.09708222811671087 0.05676392572944297 0.011140583554376658 0.0015915119363395225 
0.5580315691736305 0.008356545961002786 0.32219127205199627 0.10863509749303621 0.002785515320334262 
0.7340286831812256 0.03780964797913951 0.18904823989569752 0.03780964797913951 0.001303780964797914 
0.740041928721174 0.14465408805031446 0.06918238993710692 0.031446540880503145 0.014675052410901468 
0.7617328519855595 0.1624548736462094 0.039711191335740074 0.018050541516245487 0.018050541516245487 
0.6819787985865724 0.09540636042402827 0.13074204946996468 0.0812720848056537 0.01060070671378092 
0.7959183673469388 0.08843537414965986 0.08843537414965986 0.02040816326530612 0.006802721088435374 
0.6356497840596781 0.25009815469179425 0.06556733411857087 0.02237926972909305 0.02630545740086376 
0.725699067909454 0.21171770972037285 0.02529960053262317 0.02529960053262317 0.011984021304926764 
0.659214501510574 0.1528700906344411 0.11299093655589124 0.05740181268882175 0.017522658610271902 
0.7292929292929293 0.16363636363636364 0.06262626262626263 0.03434343434343434 0.010101010101010102 
</TABLE>
</DEFINITION>
<DEFINITION>
<FOR>host_response_rate</FOR>
	<GIVEN>review_scores_rating</GIVEN>
	<GIVEN>microwave</GIVEN>
	<GIVEN>coffee_maker</GIVEN>
<TABLE>
0.744148244473342 0.18042912873862157 0.02503250975292588 0.05039011703511053 
0.752991452991453 0.19230769230769232 0.011111111111111112 0.04358974358974359 
0.5911654135338346 0.1287593984962406 0.008458646616541353 0.2716165413533835 
0.7254807692307692 0.1735576923076923 0.007211538461538462 0.09375 
0.8335129310344828 0.12122844827586207 0.026400862068965518 0.018857758620689655 
0.8252840909090909 0.15767045454545456 0.01278409090909091 0.004261363636363636 
0.6957831325301205 0.09939759036144578 0.015060240963855422 0.1897590361445783 
0.8427272727272728 0.10272727272727272 0.019090909090909092 0.035454545454545454 
0.8002832861189801 0.17422096317280453 0.015580736543909348 0.009915014164305949 
0.8513513513513513 0.11122661122661123 0.015592515592515593 0.02182952182952183 
0.84765625 0.11328125 0.00390625 0.03515625 
0.9016034985422741 0.08090379008746355 0.008017492711370262 0.009475218658892129 
0.7968405584129317 0.13556208670095518 0.053269654665687 0.014327700220426157 
0.775974025974026 0.1396103896103896 0.03571428571428571 0.048701298701298704 
0.565359477124183 0.15359477124183007 0.029411764705882353 0.25163398692810457 
0.7915254237288135 0.13050847457627118 0.011864406779661017 0.06610169491525424 
</TABLE>
</DEFINITION>
<DEFINITION>
<FOR>host_is_superhost</FOR>
	<GIVEN>review_scores_rating</GIVEN>
	<GIVEN>number_of_reviews</GIVEN>
	<GIVEN>cooking_basics</GIVEN>
<TABLE>
0.9081291759465479 0.09187082405345212 
0.9608819345661451 0.03911806543385491 
0.8053539019963702 0.19464609800362975 
0.8928571428571429 0.10714285714285714 
0.9517543859649122 0.04824561403508772 
0.9965986394557823 0.003401360544217687 
0.9526315789473684 0.04736842105263158 
0.9934782608695653 0.006521739130434782 
0.6942508710801394 0.3057491289198606 
0.9125412541254125 0.08745874587458746 
0.19 0.81 
0.25 0.75 
0.9037267080745341 0.09627329192546584 
0.9420731707317073 0.057926829268292686 
0.89 0.11 
0.9597222222222223 0.04027777777777778 
0.6301587301587301 0.36984126984126986 
0.8493589743589743 0.15064102564102563 
0.3609936575052854 0.6390063424947146 
0.473568281938326 0.526431718061674 
0.5 0.5 
0.5 0.5 
0.5 0.5 
0.5 0.5 
0.7661290322580645 0.23387096774193547 
0.9659090909090909 0.03409090909090909 
0.5943396226415094 0.4056603773584906 
0.6176470588235294 0.38235294117647056 
0.5 0.5 
0.5 0.5 
0.919103313840156 0.08089668615984405 
0.9815251572327044 0.018474842767295597 
</TABLE>
</DEFINITION>
<DEFINITION>
<FOR>is_center</FOR>
	<GIVEN>neighbourhood_cleansed</GIVEN>
<TABLE>
0.9989816700610998 0.0010183299389002036 
0.00510204081632653 0.9948979591836735 
0.999251497005988 7.485029940119761E-4 
0.9985294117647059 0.0014705882352941176 
0.999124343257443 8.756567425569177E-4 
0.9988179669030733 0.001182033096926714 
0.9988095238095238 0.0011904761904761906 
0.9974226804123711 0.002577319587628866 
0.00847457627118644 0.9915254237288136 
0.0033783783783783786 0.9966216216216216 
0.9974358974358974 0.002564102564102564 
0.9986449864498645 0.0013550135501355014 
0.002232142857142857 0.9977678571428571 
0.003125 0.996875 
0.003048780487804878 0.9969512195121951 
0.0036231884057971015 0.9963768115942029 
0.9979166666666667 0.0020833333333333333 
0.9982456140350877 0.0017543859649122807 
0.9952830188679245 0.0047169811320754715 
0.9920634920634921 0.007936507936507936 
0.0037593984962406013 0.9962406015037594 
0.02631578947368421 0.9736842105263158 
0.9989316239316239 0.0010683760683760685 
0.0058823529411764705 0.9941176470588236 
0.0021008403361344537 0.9978991596638656 
0.9985994397759104 0.0014005602240896359 
0.004310344827586207 0.9956896551724138 
0.0035460992907801418 0.9964539007092199 
0.9962406015037594 0.0037593984962406013 
0.0038461538461538464 0.9961538461538462 
0.003703703703703704 0.9962962962962963 
0.02 0.98 
0.0037313432835820895 0.996268656716418 
0.9939024390243902 0.006097560975609756 
0.007692307692307693 0.9923076923076923 
0.9901960784313726 0.00980392156862745 
0.9977064220183486 0.0022935779816513763 
0.007042253521126761 0.9929577464788732 
0.0030864197530864196 0.9969135802469136 
0.029411764705882353 0.9705882352941176 
0.9957983193277311 0.004201680672268907 
0.014705882352941176 0.9852941176470589 
0.017857142857142856 0.9821428571428571 
0.9583333333333334 0.041666666666666664 
0.03333333333333333 0.9666666666666667 
0.023809523809523808 0.9761904761904762 
0.004807692307692308 0.9951923076923077 
0.00980392156862745 0.9901960784313726 
0.9930555555555556 0.006944444444444444 
0.03125 0.96875 
0.99 0.01 
0.0045871559633027525 0.9954128440366973 
0.018518518518518517 0.9814814814814815 
0.007692307692307693 0.9923076923076923 
0.00980392156862745 0.9901960784313726 
0.011111111111111112 0.9888888888888889 
0.013888888888888888 0.9861111111111112 
0.027777777777777776 0.9722222222222222 
0.009259259259259259 0.9907407407407407 
0.011363636363636364 0.9886363636363636 
0.0078125 0.9921875 
0.025 0.975 
0.03333333333333333 0.9666666666666667 
0.045454545454545456 0.9545454545454546 
0.9666666666666667 0.03333333333333333 
0.02 0.98 
0.08333333333333333 0.9166666666666666 
0.9 0.1 
0.8333333333333334 0.16666666666666666 
0.16666666666666666 0.8333333333333334 
0.02631578947368421 0.9736842105263158 
0.16666666666666666 0.8333333333333334 
0.1 0.9 
0.0625 0.9375 
0.03333333333333333 0.9666666666666667 
0.125 0.875 
0.16666666666666666 0.8333333333333334 
0.1 0.9 
0.16666666666666666 0.8333333333333334 
0.16666666666666666 0.8333333333333334 
0.9285714285714286 0.07142857142857142 
0.16666666666666666 0.8333333333333334 
</TABLE>
</DEFINITION>
<DEFINITION>
<FOR>neighbourhood_cleansed</FOR>
<TABLE>
0.05267962624852325 0.010471485339920525 0.07168939963484051 0.03646224895285147 0.06127161421974009 0.04537643647298894 0.045054236924068305 0.020781870905380733 0.006282891203952315 0.01584147782193105 0.020889270755020943 0.03957684459241757 0.02400386639458705 0.017130276017613574 0.017559875416174417 0.014767479325528944 0.025722263988830416 0.030555257222639888 0.011330684137042208 0.006712490602513156 0.014230480077327893 0.0019868972183438942 0.05020942970679841 0.009075287294597787 0.025507464289549996 0.03828804639673505 0.012404682633444313 0.015089678874449576 0.014230480077327893 0.013908280528407261 0.014445279776608312 0.0026312963161851575 0.014337879926968103 0.008753087745677157 0.006927290301793577 0.005423692406830631 0.023359467296745786 0.00757168939963484 0.017345075716893997 0.0017720975190634732 0.012726882182364944 0.003597894962947052 0.0029534958651057886 0.0012350982708624208 0.0015572978197830522 0.0022016969176243155 0.011115884437761786 0.005423692406830631 0.007679089249275051 0.0016646976694232628 0.00531629255719042 0.01165288368596284 0.0028460960154655783 0.006927290301793577 0.005423692406830631 0.0047792933089893675 0.003812694662227473 0.0018794973687036838 0.005745891955751262 0.004671893459349157 0.006819890452153367 0.0020942970679841046 0.0015572978197830522 0.0011276984212222102 0.0015572978197830522 0.0026312963161851575 5.906991730211578E-4 4.8329932338094726E-4 2.6849962410052626E-4 2.6849962410052626E-4 0.0019868972183438942 2.6849962410052626E-4 4.8329932338094726E-4 8.054988723015788E-4 0.0015572978197830522 3.7589947374073676E-4 2.6849962410052626E-4 4.8329932338094726E-4 2.6849962410052626E-4 2.6849962410052626E-4 6.980990226613683E-4 2.6849962410052626E-4 
</TABLE>
</DEFINITION>
<DEFINITION>
<FOR>number_of_reviews</FOR>
	<GIVEN>dishes_and_silverware</GIVEN>
	<GIVEN>coffee_maker</GIVEN>
	<GIVEN>shampoo</GIVEN>
<TABLE>
0.4043026706231454 0.19065281899109793 0.0956973293768546 0.3093471810089021 
0.39313640312771503 0.3557775847089487 0.06733275412684622 0.18375325803649 
0.37857142857142856 0.36587301587301585 0.051587301587301584 0.20396825396825397 
0.31995522865366166 0.5223856731691717 0.04397185801087304 0.11368724016629357 
0.256420233463035 0.06964980544747082 0.077431906614786 0.5964980544747082 
0.3270455658990691 0.1359627633512984 0.07814796668299853 0.458843704066634 
0.1513157894736842 0.5241228070175439 0.02850877192982456 0.29605263157894735 
0.37 0.2833333333333333 0.056666666666666664 0.29 
</TABLE>
</DEFINITION>
<DEFINITION>
<FOR>review_scores_rating</FOR>
	<GIVEN>number_of_reviews</GIVEN>
	<GIVEN>coffee_maker</GIVEN>
<TABLE>
0.585075493612079 0.25522648083623695 0.12456445993031359 0.0351335656213705 
0.445823927765237 0.32844243792325056 0.19224981188863807 0.03348382242287434 
0.6657458563535912 0.024861878453038673 0.29116022099447514 0.018232044198895028 
0.4464461994076999 0.07922013820335637 0.44842053307008883 0.025913129318854887 
0.47506234413965087 0.5224438902743143 0.0012468827930174563 0.0012468827930174563 
0.37567567567567567 0.6189189189189189 0.002702702702702703 0.002702702702702703 
0.12600094206311824 0.1980687706076307 2.3551577955723034E-4 0.6756947715496938 
0.0949579831932773 0.3168067226890756 8.403361344537816E-4 0.5873949579831933 
</TABLE>
</DEFINITION>
<DEFINITION>
<FOR>tv</FOR>
	<GIVEN>heating</GIVEN>
	<GIVEN>bed_linens</GIVEN>
	<GIVEN>iron</GIVEN>
<TABLE>
0.6781655844155844 0.3218344155844156 
0.6388286334056399 0.3611713665943601 
0.8082039911308204 0.1917960088691796 
0.6743085880640466 0.3256914119359534 
0.44661921708185054 0.5533807829181495 
0.6403508771929824 0.35964912280701755 
0.69375 0.30625 
0.4796511627906977 0.5203488372093024 
</TABLE>
</DEFINITION>
<DEFINITION>
<FOR>dishes_and_silverware</FOR>
	<GIVEN>hot_water</GIVEN>
	<GIVEN>hangers</GIVEN>
	<GIVEN>iron</GIVEN>
<TABLE>
0.8526496763754046 0.14735032362459546 
0.7417168674698795 0.2582831325301205 
0.6786743515850144 0.32132564841498557 
0.4953051643192488 0.5046948356807511 
0.21630204657727595 0.7836979534227241 
0.1792452830188679 0.8207547169811321 
0.18873517786561264 0.8112648221343873 
0.05845070422535211 0.9415492957746479 
</TABLE>
</DEFINITION>
<DEFINITION>
<FOR>essentials</FOR>
	<GIVEN>hangers</GIVEN>
	<GIVEN>dishes_and_silverware</GIVEN>
	<GIVEN>hair_dryer</GIVEN>
<TABLE>
0.9919943250912039 0.008005674908796109 
0.9246987951807228 0.07530120481927711 
0.9565318456531846 0.04346815434681543 
0.8306772908366534 0.1693227091633466 
0.9351145038167938 0.0648854961832061 
0.7705882352941177 0.22941176470588234 
0.6674242424242425 0.3325757575757576 
0.6684952978056427 0.33150470219435735 
</TABLE>
</DEFINITION>
<DEFINITION>
<FOR>kitchen</FOR>
	<GIVEN>stove</GIVEN>
	<GIVEN>essentials</GIVEN>
	<GIVEN>iron</GIVEN>
<TABLE>
0.9528072837632777 0.047192716236722304 
0.9206288343558282 0.07937116564417178 
0.5876865671641791 0.4123134328358209 
0.8633440514469454 0.13665594855305466 
0.9954102920723227 0.004589707927677329 
0.986904761904762 0.013095238095238096 
0.9910714285714286 0.008928571428571428 
0.8448275862068966 0.15517241379310345 
</TABLE>
</DEFINITION>
<DEFINITION>
<FOR>iron</FOR>
	<GIVEN>hair_dryer</GIVEN>
<TABLE>
0.8584511370620774 0.14154886293792257 
0.20008795074758134 0.7999120492524187 
</TABLE>
</DEFINITION>
<DEFINITION>
<FOR>hair_dryer</FOR>
	<GIVEN>is_center</GIVEN>
<TABLE>
0.8850952621817568 0.11490473781824313 
0.8636635737803053 0.1363364262196947 
</TABLE>
</DEFINITION>
<DEFINITION>
<FOR>cooking_basics</FOR>
	<GIVEN>dishes_and_silverware</GIVEN>
	<GIVEN>host_response_rate</GIVEN>
	<GIVEN>refrigerator</GIVEN>
<TABLE>
0.6345646437994723 0.3654353562005277 
0.931741935483871 0.06825806451612904 
0.6084905660377359 0.3915094339622642 
0.922695035460993 0.07730496453900709 
0.5 0.5 
0.8951612903225806 0.10483870967741936 
0.8928571428571429 0.10714285714285714 
0.4217289719626168 0.5782710280373832 
0.05863970588235294 0.9413602941176471 
0.3988549618320611 0.601145038167939 
0.19487750556792874 0.8051224944320713 
0.39855072463768115 0.6014492753623188 
0.029166666666666667 0.9708333333333333 
0.9 0.1 
0.25 0.75 
0.2692307692307692 0.7307692307692307 
</TABLE>
</DEFINITION>
<DEFINITION>
<FOR>heating</FOR>
	<GIVEN>washer</GIVEN>
	<GIVEN>essentials</GIVEN>
	<GIVEN>bed_linens</GIVEN>
<TABLE>
0.9684939248375247 0.03150607516247528 
0.9724443175328383 0.027555682467161623 
0.7028985507246377 0.2971014492753623 
0.8605442176870748 0.13945578231292516 
0.780558789289872 0.21944121071012807 
0.9292717086834734 0.07072829131652661 
0.375 0.625 
0.6547619047619048 0.34523809523809523 
</TABLE>
</DEFINITION>
<DEFINITION>
<FOR>bed_linens</FOR>
	<GIVEN>refrigerator</GIVEN>
	<GIVEN>hot_water</GIVEN>
	<GIVEN>dishes_and_silverware</GIVEN>
<TABLE>
0.506578947368421 0.4934210526315789 
0.25554323725055433 0.7444567627494457 
0.1346153846153846 0.8653846153846154 
0.011627906976744186 0.9883720930232558 
0.7927821803384022 0.20721781966159777 
0.7258064516129032 0.27419354838709675 
0.38220551378446116 0.6177944862155389 
0.11153846153846154 0.8884615384615384 
</TABLE>
</DEFINITION>
<DEFINITION>
<FOR>hangers</FOR>
	<GIVEN>hair_dryer</GIVEN>
	<GIVEN>iron</GIVEN>
	<GIVEN>is_center</GIVEN>
<TABLE>
0.8739801543550165 0.12601984564498347 
0.9071428571428571 0.09285714285714286 
0.7884078212290503 0.2115921787709497 
0.7654462242562929 0.2345537757437071 
0.7074074074074074 0.29259259259259257 
0.8457446808510638 0.15425531914893617 
0.2509124087591241 0.7490875912408759 
0.2878787878787879 0.7121212121212122 
</TABLE>
</DEFINITION>
<DEFINITION>
<FOR>dedicated_workspace</FOR>
	<GIVEN>hangers</GIVEN>
	<GIVEN>hot_water</GIVEN>
	<GIVEN>heating</GIVEN>
<TABLE>
0.8142370958593307 0.18576290414066932 
0.4278996865203762 0.5721003134796239 
0.6734638390429581 0.32653616095704185 
0.44545454545454544 0.5545454545454546 
0.5040080160320641 0.49599198396793587 
0.5 0.5 
0.21536286522148917 0.7846371347785108 
0.2032258064516129 0.7967741935483871 
</TABLE>
</DEFINITION>
<DEFINITION>
<FOR>hot_water</FOR>
	<GIVEN>hangers</GIVEN>
	<GIVEN>hair_dryer</GIVEN>
	<GIVEN>iron</GIVEN>
<TABLE>
0.783462657613967 0.21653734238603298 
0.617908787541713 0.382091212458287 
0.5571428571428572 0.44285714285714284 
0.44834710743801653 0.5516528925619835 
0.40362953692115144 0.5963704630788486 
0.5177165354330708 0.4822834645669291 
0.4537037037037037 0.5462962962962963 
0.1218236173393124 0.8781763826606876 
</TABLE>
</DEFINITION>
<DEFINITION>
<FOR>long_term_stays_allowed</FOR>
	<GIVEN>host_response_rate</GIVEN>
	<GIVEN>cooking_basics</GIVEN>
	<GIVEN>kitchen</GIVEN>
<TABLE>
0.8577215811441198 0.1422784188558802 
0.8928571428571429 0.10714285714285714 
0.7599786172487527 0.24002138275124732 
0.5253968253968254 0.4746031746031746 
0.9131773399014779 0.08682266009852217 
0.9166666666666666 0.08333333333333333 
0.876940133037694 0.12305986696230599 
0.6354166666666666 0.3645833333333333 
0.7573529411764706 0.2426470588235294 
0.75 0.25 
0.6975806451612904 0.3024193548387097 
0.4166666666666667 0.5833333333333334 
0.9878640776699029 0.012135922330097087 
0.9285714285714286 0.07142857142857142 
0.9917491749174917 0.00825082508250825 
0.7 0.3 
</TABLE>
</DEFINITION>
<DEFINITION>
<FOR>washer</FOR>
	<GIVEN>kitchen</GIVEN>
	<GIVEN>iron</GIVEN>
	<GIVEN>bed_linens</GIVEN>
<TABLE>
0.8382842509603073 0.1617157490396927 
0.8934236615994713 0.10657633840052876 
0.640625 0.359375 
0.7643557422969187 0.23564425770308123 
0.2708333333333333 0.7291666666666666 
0.5853080568720379 0.4146919431279621 
0.19736842105263158 0.8026315789473685 
0.2076271186440678 0.7923728813559322 
</TABLE>
</DEFINITION>
<DEFINITION>
<FOR>elevator</FOR>
	<GIVEN>kitchen</GIVEN>
	<GIVEN>heating</GIVEN>
	<GIVEN>iron</GIVEN>
<TABLE>
0.45960516324981016 0.5403948367501898 
0.47855072463768117 0.5214492753623189 
0.4552023121387283 0.5447976878612717 
0.7459016393442623 0.2540983606557377 
0.5802238805970149 0.4197761194029851 
0.6227272727272727 0.37727272727272726 
0.8333333333333334 0.16666666666666666 
0.9239130434782609 0.07608695652173914 
</TABLE>
</DEFINITION>
<DEFINITION>
<FOR>shampoo</FOR>
	<GIVEN>hangers</GIVEN>
	<GIVEN>essentials</GIVEN>
	<GIVEN>coffee_maker</GIVEN>
<TABLE>
0.3015463917525773 0.6984536082474226 
0.1500826901874311 0.8499173098125689 
0.6224489795918368 0.37755102040816324 
0.45121951219512196 0.5487804878048781 
0.5055220883534136 0.49447791164658633 
0.4753289473684211 0.524671052631579 
0.7877358490566038 0.21226415094339623 
0.939873417721519 0.060126582278481014 
</TABLE>
</DEFINITION>
<DEFINITION>
<FOR>wifi</FOR>
	<GIVEN>iron</GIVEN>
	<GIVEN>number_of_reviews</GIVEN>
	<GIVEN>hair_dryer</GIVEN>
<TABLE>
0.06633099824868652 0.9336690017513135 
0.18235294117647058 0.8176470588235294 
0.035950252623396815 0.9640497473766032 
0.08823529411764706 0.9117647058823529 
0.08353510895883777 0.9164648910411622 
0.14705882352941177 0.8529411764705882 
0.09871869539895166 0.9012813046010484 
0.19196428571428573 0.8080357142857143 
0.13242574257425743 0.8675742574257426 
0.24280575539568344 0.7571942446043165 
0.09038461538461538 0.9096153846153846 
0.10493827160493827 0.8950617283950617 
0.2468354430379747 0.7531645569620253 
0.22727272727272727 0.7727272727272727 
0.22694174757281554 0.7730582524271845 
0.4119496855345912 0.5880503144654088 
</TABLE>
</DEFINITION>
<DEFINITION>
<FOR>air_conditioning</FOR>
	<GIVEN>dishwasher</GIVEN>
	<GIVEN>heating</GIVEN>
	<GIVEN>wifi</GIVEN>
<TABLE>
0.479502196193265 0.5204978038067349 
0.3006066734074823 0.6993933265925177 
0.7815533980582524 0.21844660194174756 
0.5484429065743944 0.4515570934256055 
0.2891156462585034 0.7108843537414966 
0.14744249914177823 0.8525575008582218 
0.640625 0.359375 
0.3704819277108434 0.6295180722891566 
</TABLE>
</DEFINITION>
<DEFINITION>
<FOR>oven</FOR>
	<GIVEN>refrigerator</GIVEN>
	<GIVEN>stove</GIVEN>
	<GIVEN>washer</GIVEN>
<TABLE>
0.9879617414248021 0.012038258575197889 
0.9848883048620236 0.015111695137976347 
0.5943396226415094 0.4056603773584906 
0.6176470588235294 0.38235294117647056 
0.4726640159045726 0.5273359840954275 
0.658311345646438 0.341688654353562 
0.20447976878612717 0.7955202312138728 
0.4201754385964912 0.5798245614035088 
</TABLE>
</DEFINITION>
<DEFINITION>
<FOR>stove</FOR>
	<GIVEN>refrigerator</GIVEN>
	<GIVEN>bed_linens</GIVEN>
	<GIVEN>dishes_and_silverware</GIVEN>
<TABLE>
0.8214285714285714 0.17857142857142858 
0.9671814671814671 0.032818532818532815 
0.9683333333333334 0.03166666666666667 
0.9953135100193924 0.0046864899806076275 
0.19732745199792423 0.8026725480020758 
0.375 0.625 
0.4056836902800659 0.5943163097199341 
0.38571428571428573 0.6142857142857143 
</TABLE>
</DEFINITION>
<DEFINITION>
<FOR>coffee_maker</FOR>
	<GIVEN>refrigerator</GIVEN>
	<GIVEN>dishwasher</GIVEN>
	<GIVEN>dishes_and_silverware</GIVEN>
<TABLE>
0.7004662004662005 0.29953379953379955 
0.9749230769230769 0.025076923076923077 
0.35185185185185186 0.6481481481481481 
0.13106796116504854 0.8689320388349514 
0.3371177015755329 0.6628822984244671 
0.4890710382513661 0.5109289617486339 
0.2634020618556701 0.73659793814433 
0.3201219512195122 0.6798780487804879 
</TABLE>
</DEFINITION>
<DEFINITION>
<FOR>dishwasher</FOR>
	<GIVEN>refrigerator</GIVEN>
	<GIVEN>oven</GIVEN>
	<GIVEN>kitchen</GIVEN>
<TABLE>
0.9772858796296297 0.02271412037037037 
0.7779456193353474 0.22205438066465258 
0.5625 0.4375 
0.875 0.125 
0.639937106918239 0.360062893081761 
0.9085365853658537 0.09146341463414634 
0.33257188927707604 0.667428110722924 
0.5227272727272727 0.4772727272727273 
</TABLE>
</DEFINITION>
<DEFINITION>
<FOR>refrigerator</FOR>
	<GIVEN>dishes_and_silverware</GIVEN>
	<GIVEN>hot_water</GIVEN>
	<GIVEN>iron</GIVEN>
<TABLE>
0.06728824983149854 0.9327117501685015 
0.1346153846153846 0.8653846153846154 
0.22263681592039802 0.777363184079602 
0.3188976377952756 0.6811023622047244 
0.7946428571428571 0.20535714285714285 
0.8405017921146953 0.15949820788530467 
0.9286653517422748 0.07133464825772518 
0.9797169811320755 0.020283018867924527 
</TABLE>
</DEFINITION>
<DEFINITION>
<FOR>microwave</FOR>
	<GIVEN>refrigerator</GIVEN>
	<GIVEN>dishes_and_silverware</GIVEN>
	<GIVEN>dishwasher</GIVEN>
<TABLE>
0.8193473193473193 0.18065268065268064 
0.4506172839506173 0.5493827160493827 
0.9930769230769231 0.006923076923076923 
0.9368932038834952 0.06310679611650485 
0.4246987951807229 0.5753012048192772 
0.3324742268041237 0.6675257731958762 
0.5819672131147541 0.4180327868852459 
0.22865853658536586 0.7713414634146342 
</TABLE>
</DEFINITION>
</NETWORK>
</BIF>
